<?xml version='1.0' encoding='utf-8'?>
<BIF VERSION="0.3">
  <NETWORK>
    <NAME>UNTITLED</NAME>
    <VARIABLE TYPE="nature">
      <NAME>Anxiety</NAME>
      <OUTCOME>yes</OUTCOME>
      <OUTCOME>no</OUTCOME>
      <PROPERTY />
    </VARIABLE>
    <VARIABLE TYPE="nature">
      <NAME>AtHome</NAME>
      <OUTCOME>yes</OUTCOME>
      <OUTCOME>no</OUTCOME>
      <PROPERTY />
    </VARIABLE>
    <VARIABLE TYPE="nature">
      <NAME>Country</NAME>
      <OUTCOME>ABW</OUTCOME>
      <OUTCOME>AFG</OUTCOME>
      <OUTCOME>AGO</OUTCOME>
      <OUTCOME>ALB</OUTCOME>
      <OUTCOME>ARE</OUTCOME>
      <OUTCOME>ARG</OUTCOME>
      <OUTCOME>ARM</OUTCOME>
      <OUTCOME>ATG</OUTCOME>
      <OUTCOME>AUS</OUTCOME>
      <OUTCOME>AUT</OUTCOME>
      <OUTCOME>AZE</OUTCOME>
      <OUTCOME>BDI</OUTCOME>
      <OUTCOME>BEL</OUTCOME>
      <OUTCOME>BEN</OUTCOME>
      <OUTCOME>BFA</OUTCOME>
      <OUTCOME>BGD</OUTCOME>
      <OUTCOME>BGR</OUTCOME>
      <OUTCOME>BHR</OUTCOME>
      <OUTCOME>BHS</OUTCOME>
      <OUTCOME>BIH</OUTCOME>
      <OUTCOME>BLR</OUTCOME>
      <OUTCOME>BLZ</OUTCOME>
      <OUTCOME>BOL</OUTCOME>
      <OUTCOME>BRA</OUTCOME>
      <OUTCOME>BRB</OUTCOME>
      <OUTCOME>BRN</OUTCOME>
      <OUTCOME>BTN</OUTCOME>
      <OUTCOME>BWA</OUTCOME>
      <OUTCOME>CAF</OUTCOME>
      <OUTCOME>CAN</OUTCOME>
      <OUTCOME>CHE</OUTCOME>
      <OUTCOME>CHL</OUTCOME>
      <OUTCOME>CHN</OUTCOME>
      <OUTCOME>CIV</OUTCOME>
      <OUTCOME>CMR</OUTCOME>
      <OUTCOME>COD</OUTCOME>
      <OUTCOME>COG</OUTCOME>
      <OUTCOME>COL</OUTCOME>
      <OUTCOME>COM</OUTCOME>
      <OUTCOME>CPV</OUTCOME>
      <OUTCOME>CRI</OUTCOME>
      <OUTCOME>CUB</OUTCOME>
      <OUTCOME>CYP</OUTCOME>
      <OUTCOME>CZE</OUTCOME>
      <OUTCOME>DEU</OUTCOME>
      <OUTCOME>DJI</OUTCOME>
      <OUTCOME>DNK</OUTCOME>
      <OUTCOME>DOM</OUTCOME>
      <OUTCOME>DZA</OUTCOME>
      <OUTCOME>ECU</OUTCOME>
      <OUTCOME>EGY</OUTCOME>
      <OUTCOME>ERI</OUTCOME>
      <OUTCOME>ESP</OUTCOME>
      <OUTCOME>EST</OUTCOME>
      <OUTCOME>ETH</OUTCOME>
      <OUTCOME>FIN</OUTCOME>
      <OUTCOME>FJI</OUTCOME>
      <OUTCOME>FRA</OUTCOME>
      <OUTCOME>FSM</OUTCOME>
      <OUTCOME>GAB</OUTCOME>
      <OUTCOME>GBR</OUTCOME>
      <OUTCOME>GEO</OUTCOME>
      <OUTCOME>GHA</OUTCOME>
      <OUTCOME>GIN</OUTCOME>
      <OUTCOME>GNB</OUTCOME>
      <OUTCOME>GNQ</OUTCOME>
      <OUTCOME>GRC</OUTCOME>
      <OUTCOME>GRD</OUTCOME>
      <OUTCOME>GTM</OUTCOME>
      <OUTCOME>GUY</OUTCOME>
      <OUTCOME>HND</OUTCOME>
      <OUTCOME>HRV</OUTCOME>
      <OUTCOME>HUN</OUTCOME>
      <OUTCOME>IDN</OUTCOME>
      <OUTCOME>IND</OUTCOME>
      <OUTCOME>IRL</OUTCOME>
      <OUTCOME>IRN</OUTCOME>
      <OUTCOME>IRQ</OUTCOME>
      <OUTCOME>ISL</OUTCOME>
      <OUTCOME>ISR</OUTCOME>
      <OUTCOME>ITA</OUTCOME>
      <OUTCOME>JAM</OUTCOME>
      <OUTCOME>JOR</OUTCOME>
      <OUTCOME>JPN</OUTCOME>
      <OUTCOME>KAZ</OUTCOME>
      <OUTCOME>KEN</OUTCOME>
      <OUTCOME>KGZ</OUTCOME>
      <OUTCOME>KHM</OUTCOME>
      <OUTCOME>KIR</OUTCOME>
      <OUTCOME>KOR</OUTCOME>
      <OUTCOME>KWT</OUTCOME>
      <OUTCOME>LAO</OUTCOME>
      <OUTCOME>LBN</OUTCOME>
      <OUTCOME>LBR</OUTCOME>
      <OUTCOME>LBY</OUTCOME>
      <OUTCOME>LCA</OUTCOME>
      <OUTCOME>LKA</OUTCOME>
      <OUTCOME>LSO</OUTCOME>
      <OUTCOME>LTU</OUTCOME>
      <OUTCOME>LUX</OUTCOME>
      <OUTCOME>LVA</OUTCOME>
      <OUTCOME>MAR</OUTCOME>
      <OUTCOME>MDA</OUTCOME>
      <OUTCOME>MDG</OUTCOME>
      <OUTCOME>MDV</OUTCOME>
      <OUTCOME>MEX</OUTCOME>
      <OUTCOME>MKD</OUTCOME>
      <OUTCOME>MLI</OUTCOME>
      <OUTCOME>MLT</OUTCOME>
      <OUTCOME>MMR</OUTCOME>
      <OUTCOME>MNE</OUTCOME>
      <OUTCOME>MNG</OUTCOME>
      <OUTCOME>MOZ</OUTCOME>
      <OUTCOME>MRT</OUTCOME>
      <OUTCOME>MUS</OUTCOME>
      <OUTCOME>MWI</OUTCOME>
      <OUTCOME>MYS</OUTCOME>
      <OUTCOME>NAM</OUTCOME>
      <OUTCOME>NER</OUTCOME>
      <OUTCOME>NGA</OUTCOME>
      <OUTCOME>NIC</OUTCOME>
      <OUTCOME>NLD</OUTCOME>
      <OUTCOME>NOR</OUTCOME>
      <OUTCOME>NPL</OUTCOME>
      <OUTCOME>NZL</OUTCOME>
      <OUTCOME>OMN</OUTCOME>
      <OUTCOME>PAK</OUTCOME>
      <OUTCOME>PAN</OUTCOME>
      <OUTCOME>PER</OUTCOME>
      <OUTCOME>PHL</OUTCOME>
      <OUTCOME>PNG</OUTCOME>
      <OUTCOME>POL</OUTCOME>
      <OUTCOME>PRK</OUTCOME>
      <OUTCOME>PRT</OUTCOME>
      <OUTCOME>PRY</OUTCOME>
      <OUTCOME>PSE</OUTCOME>
      <OUTCOME>QAT</OUTCOME>
      <OUTCOME>ROU</OUTCOME>
      <OUTCOME>RUS</OUTCOME>
      <OUTCOME>RWA</OUTCOME>
      <OUTCOME>SAU</OUTCOME>
      <OUTCOME>SDN</OUTCOME>
      <OUTCOME>SEN</OUTCOME>
      <OUTCOME>SGP</OUTCOME>
      <OUTCOME>SLB</OUTCOME>
      <OUTCOME>SLE</OUTCOME>
      <OUTCOME>SLV</OUTCOME>
      <OUTCOME>SRB</OUTCOME>
      <OUTCOME>SSD</OUTCOME>
      <OUTCOME>SUR</OUTCOME>
      <OUTCOME>SVK</OUTCOME>
      <OUTCOME>SVN</OUTCOME>
      <OUTCOME>SWE</OUTCOME>
      <OUTCOME>SWZ</OUTCOME>
      <OUTCOME>SYC</OUTCOME>
      <OUTCOME>SYR</OUTCOME>
      <OUTCOME>TCD</OUTCOME>
      <OUTCOME>TGO</OUTCOME>
      <OUTCOME>THA</OUTCOME>
      <OUTCOME>TJK</OUTCOME>
      <OUTCOME>TKM</OUTCOME>
      <OUTCOME>TLS</OUTCOME>
      <OUTCOME>TON</OUTCOME>
      <OUTCOME>TTO</OUTCOME>
      <OUTCOME>TUN</OUTCOME>
      <OUTCOME>TUR</OUTCOME>
      <OUTCOME>TZA</OUTCOME>
      <OUTCOME>UGA</OUTCOME>
      <OUTCOME>UKR</OUTCOME>
      <OUTCOME>URY</OUTCOME>
      <OUTCOME>USA</OUTCOME>
      <OUTCOME>UZB</OUTCOME>
      <OUTCOME>VCT</OUTCOME>
      <OUTCOME>VEN</OUTCOME>
      <OUTCOME>VNM</OUTCOME>
      <OUTCOME>VUT</OUTCOME>
      <OUTCOME>WSM</OUTCOME>
      <OUTCOME>YEM</OUTCOME>
      <OUTCOME>ZAF</OUTCOME>
      <OUTCOME>ZWE</OUTCOME>
      <PROPERTY />
    </VARIABLE>
    <VARIABLE TYPE="nature">
      <NAME>Depression</NAME>
      <OUTCOME>yes</OUTCOME>
      <OUTCOME>no</OUTCOME>
      <PROPERTY />
    </VARIABLE>
    <VARIABLE TYPE="nature">
      <NAME>Education</NAME>
      <OUTCOME>primary</OUTCOME>
      <OUTCOME>lower_secondary</OUTCOME>
      <OUTCOME>upper_secondary</OUTCOME>
      <PROPERTY />
    </VARIABLE>
    <VARIABLE TYPE="nature">
      <NAME>Gender</NAME>
      <OUTCOME>male</OUTCOME>
      <OUTCOME>female</OUTCOME>
      <PROPERTY />
    </VARIABLE>
    <VARIABLE TYPE="nature">
      <NAME>Group</NAME>
      <OUTCOME>SDG_Africa_Sub_Saharan_</OUTCOME>
      <OUTCOME>SDG_Asia_Central_and_Southern_</OUTCOME>
      <OUTCOME>SDG_Asia_Eastern_and_South_eastern_</OUTCOME>
      <OUTCOME>SDG_Latin_America_and_the_Caribbean</OUTCOME>
      <OUTCOME>SDG_Northern_America_and_Europe</OUTCOME>
      <OUTCOME>SDG_Oceania</OUTCOME>
      <OUTCOME>SDG_Western_Asia_and_Northern_Africa</OUTCOME>
      <PROPERTY />
    </VARIABLE>
    <VARIABLE TYPE="nature">
      <NAME>InternetAccess</NAME>
      <OUTCOME>yes</OUTCOME>
      <OUTCOME>no</OUTCOME>
      <PROPERTY />
    </VARIABLE>
    <VARIABLE TYPE="nature">
      <NAME>Online</NAME>
      <OUTCOME>no</OUTCOME>
      <OUTCOME>yes</OUTCOME>
      <PROPERTY />
    </VARIABLE>
    <VARIABLE TYPE="nature">
      <NAME>Radio</NAME>
      <OUTCOME>no</OUTCOME>
      <OUTCOME>yes</OUTCOME>
      <PROPERTY />
    </VARIABLE>
    <VARIABLE TYPE="nature">
      <NAME>RadioAccess</NAME>
      <OUTCOME>yes</OUTCOME>
      <OUTCOME>no</OUTCOME>
      <PROPERTY />
    </VARIABLE>
    <VARIABLE TYPE="nature">
      <NAME>Student</NAME>
      <OUTCOME>yes</OUTCOME>
      <OUTCOME>no</OUTCOME>
      <PROPERTY />
    </VARIABLE>
    <VARIABLE TYPE="nature">
      <NAME>Tv</NAME>
      <OUTCOME>no</OUTCOME>
      <OUTCOME>yes</OUTCOME>
      <PROPERTY />
    </VARIABLE>
    <VARIABLE TYPE="nature">
      <NAME>TvAccess</NAME>
      <OUTCOME>yes</OUTCOME>
      <OUTCOME>no</OUTCOME>
      <PROPERTY />
    </VARIABLE>
    <DEFINITION>
      <FOR>Anxiety</FOR>
      <GIVEN>AtHome</GIVEN>
      <TABLE>0.4286 0.5714 0.2403 0.7597 </TABLE>
    </DEFINITION>
    <DEFINITION>
      <FOR>AtHome</FOR>
      <GIVEN>Country</GIVEN>
      <TABLE>0.12846715328467154 0.8715328467153285 0.6058394160583942 0.3941605839416058 0.47153284671532847 0.5284671532846715 0.2934306569343066 0.7065693430656934 0.6321167883211679 0.3678832116788321 0.8394160583941606 0.16058394160583944 0.12700729927007298 0.872992700729927 0.6861313868613139 0.3138686131386861 0.4481751824817518 0.5518248175182482 0.39854014598540144 0.6014598540145986 0.4992700729927007 0.5007299270072993 0.0 1.0 0.2948905109489051 0.7051094890510949 0.15182481751824817 0.8481751824817518 0.16204379562043797 0.8379562043795621 0.7722627737226277 0.22773722627737225 0.48905109489051096 0.5109489051094891 0.7124087591240876 0.28759124087591237 0.6905109489051094 0.30948905109489055 0.5007299270072992 0.49927007299270076 0.0 1.0 0.6204379562043796 0.3795620437956204 0.8364963503649635 0.1635036496350365 0.8102189781021898 0.1897810218978102 0.5576642335766423 0.4423357664233577 0.3284671532846715 0.6715328467153285 0.6817518248175183 0.3182481751824817 0.2846715328467153 0.7153284671532847 0.23795620437956205 0.762043795620438 0.5182481751824818 0.4817518248175182 0.06569343065693431 0.9343065693430657 0.7094890510948905 0.29051094890510953 0.2759124087591241 0.724087591240876 0.13138686131386862 0.8686131386861313 0.1854014598540146 0.8145985401459854 0.3372262773722628 0.6627737226277373 0.3970802919708029 0.602919708029197 0.7883211678832117 0.21167883211678828 0.35912408759124087 0.6408759124087591 0.2029197080291971 0.7970802919708029 0.8350364963503649 0.16496350364963508 0.6321167883211679 0.3678832116788321 0.28175182481751826 0.7182481751824817 0.46715328467153283 0.5328467153284672 0.38686131386861317 0.6131386861313868 0.10802919708029197 0.891970802919708 0.3562043795620438 0.6437956204379562 0.564963503649635 0.435036496350365 0.21897810218978103 0.781021897810219 0.8408759124087591 0.15912408759124086 0.19854014598540146 0.8014598540145985 0.5080291970802919 0.4919708029197081 0.15328467153284672 0.8467153284671532 0.2613138686131387 0.7386861313868613 0.6321167883211679 0.3678832116788321 0.3357664233576642 0.6642335766423357 0.4408759124087591 0.5591240875912409 0.11970802919708029 0.8802919708029198 0.24525547445255474 0.7547445255474452 0.21605839416058395 0.7839416058394161 0.2759124087591241 0.724087591240876 0.35766423357664234 0.6423357664233577 0.39416058394160586 0.6058394160583942 0.22043795620437956 0.7795620437956204 0.23065693430656933 0.7693430656934307 0.345985401459854 0.654014598540146 0.38248175182481753 0.6175182481751824 0.727007299270073 0.272992700729927 0.8233576642335766 0.1766423357664234 0.7124087591240876 0.28759124087591237 0.8262773722627738 0.17372262773722624 0.10218978102189781 0.8978102189781022 0.3970802919708029 0.602919708029197 0.8116788321167884 0.18832116788321163 0.872992700729927 0.12700729927007304 0.2613138686131387 0.7386861313868613 0.6773722627737226 0.32262773722627736 0.6364963503649635 0.36350364963503645 0.06277372262773723 0.9372262773722628 0.3343065693430657 0.6656934306569343 0.38394160583941606 0.6160583941605839 0.6437956204379562 0.35620437956204376 0.5547445255474452 0.44525547445255476 0.11678832116788321 0.8832116788321168 0.4394160583941606 0.5605839416058394 0.3781021897810219 0.621897810218978 0.27153284671532846 0.7284671532846716 0.6788321167883211 0.3211678832116789 0.030656934306569343 0.9693430656934306 0.7927007299270074 0.20729927007299265 0.7605839416058394 0.23941605839416058 0.5153284671532846 0.4846715328467154 0.5051094890510949 0.4948905109489051 0.3781021897810219 0.621897810218978 0.6277372262773723 0.3722627737226277 0.6627737226277373 0.33722627737226274 0.7605839416058394 0.23941605839416058 0.4364963503649635 0.5635036496350365 0.3897810218978102 0.6102189781021898 0.15036496350364964 0.8496350364963503 0.4978102189781022 0.5021897810218978 0.345985401459854 0.654014598540146 0.1635036496350365 0.8364963503649635 0.327007299270073 0.672992700729927 0.1678832116788321 0.8321167883211679 0.7576642335766424 0.24233576642335763 0.5503649635036496 0.4496350364963504 0.16934306569343066 0.8306569343065693 0.2116788321167883 0.7883211678832117 0.7927007299270074 0.20729927007299265 0.5664233576642336 0.4335766423357664 0.5970802919708029 0.4029197080291971 0.5386861313868613 0.4613138686131387 0.23941605839416058 0.7605839416058394 0.28029197080291973 0.7197080291970803 0.2656934306569343 0.7343065693430657 0.6335766423357664 0.3664233576642336 0.25255474452554744 0.7474452554744526 0.1678832116788321 0.8321167883211679 0.24379562043795622 0.7562043795620438 0.15328467153284672 0.8467153284671532 0.31386861313868614 0.6861313868613139 0.3007299270072993 0.6992700729927007 0.8379562043795621 0.1620437956204379 0.2759124087591241 0.724087591240876 0.5941605839416059 0.40583941605839413 0.6248175182481752 0.3751824817518248 0.8569343065693431 0.1430656934306569 0.7883211678832117 0.21167883211678828 0.6481751824817519 0.3518248175182481 0.061313868613138686 0.9386861313868613 0.44379562043795623 0.5562043795620437 0.39854014598540144 0.6014598540145986 0.24671532846715327 0.7532846715328467 0.7518248175182481 0.24817518248175185 0.6087591240875913 0.39124087591240875 0.5737226277372263 0.42627737226277373 0.3635036496350365 0.6364963503649634 0.13284671532846715 0.8671532846715329 0.5255474452554745 0.4744525547445255 0.689051094890511 0.310948905109489 0.23503649635036497 0.7649635036496351 0.22189781021897811 0.7781021897810219 0.1678832116788321 0.8321167883211679 0.07007299270072993 0.92992700729927 0.1386861313868613 0.8613138686131387 0.8160583941605839 0.1839416058394161 0.4306569343065693 0.5693430656934306 0.5518248175182482 0.4481751824817518 0.6 0.4 0.3897810218978102 0.6102189781021898 0.4832116788321168 0.5167883211678832 0.24379562043795622 0.7562043795620438 0.5781021897810219 0.4218978102189781 0.472992700729927 0.527007299270073 0.2934306569343066 0.7065693430656934 0.28175182481751826 0.7182481751824817 0.1416058394160584 0.8583941605839416 0.5781021897810219 0.4218978102189781 0.0 1.0 0.043795620437956206 0.9562043795620438 0.4072992700729927 0.5927007299270073 0.026277372262773723 0.9737226277372263 0.689051094890511 0.310948905109489 0.32554744525547447 0.6744525547445255 0.5036496350364964 0.4963503649635036 0.14890510948905109 0.8510948905109489 0.8948905109489051 0.10510948905109485 0.32116788321167883 0.6788321167883211 0.41021897810218977 0.5897810218978102 0.7562043795620438 0.24379562043795622 0.11970802919708029 0.8802919708029198 0.5532846715328467 0.44671532846715334 0.7532846715328467 0.24671532846715327 0.3605839416058394 0.6394160583941606 0.03941605839416058 0.9605839416058394 0.042335766423357665 0.9576642335766423 0.19854014598540146 0.8014598540145985 0.635036496350365 0.36496350364963503 0.4481751824817518 0.5518248175182482 </TABLE>
    </DEFINITION>
    <DEFINITION>
      <FOR>Country</FOR>
      <GIVEN>Group</GIVEN>
      <TABLE>0.0 0.0 0.03092298257889853 0.0 0.0 0.0 0.0 0.0 0.0 0.0 0.0 0.011203824298286903 0.0 0.011466163432840494 0.01974539219406699 0.0 0.0 0.0 0.0 0.0 0.0 0.0 0.0 0.0 0.0 0.0 0.0 0.0022386272815239808 0.004610367383173303 0.0 0.0 0.0 0.0 0.024986345126593184 0.02514180535447679 0.08432745736261558 0.005227350162586379 0.0 0.0008268540870559495 0.0005343945333499086 0.0 0.0 0.0 0.0 0.0 0.0009463641372414746 0.0 0.0 0.0 0.0 0.0 0.003122780122072132 0.0 0.0 0.10889891800604438 0.0 0.0 0.0 0.0 0.002110372593520003 0.0 0.0 0.029554932573522767 0.01240864106438488 0.00186649436102759 0.0013175254313135929 0.0 0.0 0.0 0.0 0.0 0.0 0.0 0.0 0.0 0.0 0.0 0.0 0.0 0.0 0.0 0.0 0.0 0.0 0.0 0.05108228762970563 0.0 0.0 0.0 0.0 0.0 0.0 0.0 0.004796919656633635 0.0 0.0 0.0 0.0020647061515791923 0.0 0.0 0.0 0.0 0.0 0.0262037930362067 0.0 0.0 0.0 0.019100232248350005 0.0 0.0 0.0 0.0 0.02950440799946059 0.004397581196257612 0.0012320223059776076 0.01809945703134927 0.0 0.00242420792856004 0.0226486119497934 0.19526193272751097 0.0 0.0 0.0 0.0 0.0 0.0 0.0 0.0 0.0 0.0 0.0 0.0 0.0 0.0 0.0 0.0 0.0 0.0 0.0 0.01226872685928963 0.0 0.0 0.015833624209945656 0.0 0.0 0.0075913172528415205 0.0 0.0 0.01097566017995425 0.0 0.0 0.0 0.0 0.0011154271350649002 9.424776315443843e-05 0.0 0.015494526587874532 0.007853656387395111 0.0 0.0 0.0 0.0 0.0 0.0 0.0 0.0 0.05636016236635418 0.04301293017612201 0.0 0.0 0.0 0.0 0.0 0.0 0.0 0.0 0.0 0.0 0.05689650015255263 0.014229468983471659 0.0 0.01909602829517173 0.0 0.0 0.0 0.0 0.0 0.0 0.0 0.0 0.0 0.0 0.0 0.0 0.0 0.08184456730494111 0.0 0.0 0.0 0.0 0.0 0.0 0.0 0.0 0.0 0.0 0.00038300482596120155 0.0 0.0 0.0 0.0 0.0 0.0 0.0 0.0 0.0 0.0 0.0 0.0 0.0 0.0 0.0 0.0 0.0 0.0 0.0 0.0 0.0 0.0 0.0 0.0 0.0 0.0 0.0 0.0 0.0 0.0 0.0 0.0 0.0 0.0 0.0 0.0 0.0 0.0 0.0 0.0 0.0 0.0 0.0 0.0 0.0 0.0 0.0 0.6859039164878808 0.0 0.04162052705078252 0.0 0.0 0.0 0.0 0.0 0.0 0.0 0.00927092546615653 0.0 0.0032146302823794688 0.0 0.0 0.0 0.0 0.0 0.0 0.0 0.0 0.0 0.010921410220757356 0.0 0.0 0.0 0.0 0.0 0.0 0.0 0.0002665472642010459 0.0 0.0 0.0 0.0 0.0 0.0 0.0 0.0 0.0 0.0 0.0 0.0 0.0 0.0 0.0 0.0 0.0 0.0 0.014360924070673678 0.0 0.0 0.1087101220696115 0.0 0.0 0.0 0.0 0.0 0.0 0.0 0.0 0.0 0.0 0.0 0.0 0.0 0.0 0.0 0.0 0.0 0.0 0.0 0.0 0.0 0.0 0.0 0.0 0.0 0.0 0.0 0.0 0.0 0.0 0.0 0.0 0.00467888333261384 0.00298271910335709 0.0 0.0 0.0 0.0 0.0 0.0 0.0 0.0 0.0 0.0 0.016745794225512037 0.0 0.0 0.0 0.0 0.0 0.0 0.0 0.0 0.0 0.0 0.0 0.0 0.0 0.0 0.0 0.0 0.0 0.0 0.0 0.0 0.0 0.0 0.0 0.0 0.0 0.0 0.0 0.0 0.0 0.0 0.0 0.0 0.0 0.00019108687833326347 0.0 0.0 0.0 0.0 0.0 0.0 0.6166391216181926 0.0 0.0 0.0 0.0 0.0 0.0 0.0 0.0 0.0 0.0 0.0 0.0 0.0 0.0 0.0 0.0 0.0 0.0 0.0 0.0 0.0 0.0 0.0 0.0 0.0 0.0 0.0 0.0 0.0 0.0 0.0 0.0 0.0 0.0 0.0 0.0 0.0 0.0 0.0 0.0 0.1194297402674775 0.0 0.0 0.0 0.0 0.0 0.0 0.0 0.0 0.0 0.055648205967824146 0.0 0.0 0.0 0.007275423270674783 0.0 0.022851872364556693 0.0 0.0031637455676008447 0.0 0.0 0.0 0.0 0.0 0.0 0.0 0.0 0.0 0.0 0.0 0.0 0.0 0.0 0.0 0.0 0.0 0.02385099636581884 0.0 0.0014232221307731517 0.0 0.0 0.0 0.0 0.014099828551380526 0.0 0.0 0.0 0.0 0.0 0.0 0.0 0.0 0.0 0.0 0.0 0.0 0.047713025461333596 0.0 0.0 0.011326641615015103 0.0 0.0 0.0 0.0 0.0 0.0 0.0 0.0 0.0 0.0 0.0025198754625471924 0.0 0.0 0.0 0.0 0.0 0.0 0.0 0.0 0.0 0.0 0.0 0.0 0.0 0.0 0.03072659351231363 0.0 0.0 0.0005710540890606072 0.0 0.0 0.0 0.0 0.0 0.0 0.0 0.0 0.0 0.0 0.0 0.0 0.0425695668770976 0.0 0.0 0.0 0.0 0.0 0.00016763902573259045 0.0 0.0 0.0 0.0 0.07101094240017966 0.0 0.00015340552354774787 0.0 0.0 0.0 0.0 0.0 0.0 0.0 0.0 0.0 0.0 0.0006152035944337517 0.0 0.0 0.0006167850946765121 0.01820781229489919 0.3337740447343159 0.00045389056967220246 0.0 0.0 0.0 0.0 0.0 0.0 0.029972592600792963 0.0 0.0 0.0 0.0 0.0 0.0796111407203101 0.0 0.0 0.00798341322545393 0.017924723751445097 0.0 0.0 0.0 0.0 0.0 0.016983731107002725 0.0 0.02747540371747447 0.0 0.0 0.0 0.0 0.0 0.0 0.0 0.0 0.0 0.0 0.0 0.0 0.0 0.0 0.0 0.0 0.0 0.00017712802718915216 0.02780593726821137 0.001238314690081305 0.01541330136594176 0.0 0.0 0.0 0.0 0.0 0.0 0.0 0.0 0.0 0.0 0.004663844215900087 0.0 0.0 0.0 0.0 0.0 0.0 0.0 0.0 0.0 0.0 0.0 0.0 0.0 0.00028941454442513257 0.0 0.0 0.0 0.0 0.0 0.0 0.0 0.0 0.0 0.20175989347014364 0.0 0.0 0.0 0.0 0.0 0.0 0.0 0.0 0.0 0.0 0.0 0.0 0.0 0.0 0.01035250058910884 0.0 0.0 0.0 0.0 0.0 0.0 0.006715050030760179 0.05141457289213694 0.0 0.0 0.0 0.0 0.0 0.011141669210246223 0.0 0.0 0.0 0.0 0.0 0.0 0.0 0.0 0.0 0.0 0.0 0.010205421066532133 0.0 0.0 0.0009188516410437269 0.0 0.0 0.0 0.0 0.0 0.0 0.0 0.0 0.0 0.0 0.0 0.0 0.0 0.002206192838650601 0.0 0.0 0.0 0.0 0.0 0.005475153840436115 0.0 0.0 0.0001739650267036316 0.04509806092255235 0.0 0.0 0.0 0.0 0.0 0.0 0.0 0.0 0.0 0.0025803931521927942 0.0 0.0 0.0 0.0 0.0 0.007978788034248036 0.0 0.0 0.010334173063647598 0.0 0.0 0.0 0.006272326430984159 0.0 0.0 0.002971007253361846 0.008520607593934141 0.0 0.0 0.0 0.0 0.0 0.0 0.0 0.0 0.03363781432509714 0.007722278774263751 0.0 0.0 0.0 0.0 0.0 0.0 0.0 0.0 0.0 0.0 0.0 0.0 0.009566445348677087 0.07452809046406575 0.0 0.0052363890336441146 0.0 0.0 0.0 0.0 0.0 0.042048617955108177 0.0011862428233659235 0.0 0.0049789797411686565 0.0 0.06049208376422389 0.0 0.0 0.06017347226234867 0.0 0.0 0.0 0.0 0.0 0.009626747525585674 0.0 0.0 0.0 0.0 0.0036631322390738305 0.008759116204094967 0.0 0.0 0.004403858979309153 0.0 0.0 0.00032041156685756354 0.0 0.05430796051737468 0.0 0.0 0.0 0.0 0.0 0.0 0.0 0.0 0.0 0.0 0.0 0.0 0.0 0.0 0.0 0.0 0.0 0.0025002902604784032 0.0005535199820713528 0.0017244622530873364 0.0 0.003182514888787485 0.0 0.0 0.0 0.001874767679113216 0.0 0.0004365157582188717 0.0 0.0005607202420007362 0.0 0.0 0.0 0.0 0.0 0.0 0.0 0.0 0.0 0.0 0.015552561447468253 0.004832274445107468 0.0 0.0 0.0 0.0 0.0 0.0 0.0 0.0 0.034106731252998235 0.0 0.009213632612137299 0.0 0.0 0.0 0.017422828964125604 0.12993679071814493 0.0 0.0 0.0 0.0 0.0 0.0 0.0 0.0 0.006259725976107738 0.0 0.0 0.0049033770119101296 0.0018603671592544492 0.00922623306701372 0.0 0.0 0.0 0.0 0.0 0.0 0.0 0.0 0.0 0.0 0.0 0.0 0.0 0.0 0.0 0.03995334231565759 0.0 0.2965904069136896 0.0 0.0 0.0 0.0 0.0 0.0 0.0 0.0 0.0 0.0 0.0 0.0 0.0 0.0 0.0 0.0 0.0 0.6111688123475278 0.0 0.0 0.0 0.0 0.0 0.0 0.0 0.0 0.0 0.0 0.0 0.0 0.0 0.0 0.0 0.0 0.0 0.0 0.0 0.0 0.0 0.0 0.0 0.0 0.0 0.0 0.0 0.0 0.0 0.0 0.0 0.0 0.0 0.0 0.0 0.0 0.0 0.0 0.0 0.0 0.0 0.0 0.0 0.0 0.0 0.0 0.0 0.02149706528827806 0.0 0.0027535566773749425 0.0 0.0 0.0 0.0 0.0 0.0 0.0 0.0 0.0 0.0 0.0 0.0 0.0 0.0 0.0 0.0 0.0 0.0 0.0 0.0 0.0 0.0 0.0 0.0 0.0 0.0 0.0 0.0 0.0 0.0028501727011424846 0.0 0.0 0.0 0.0 0.0 0.0 0.0 0.0 0.0 0.0 0.0 0.0 0.0 0.0 0.0 0.0 0.0 0.0 0.0 0.0 0.0 0.0 0.0 0.0 0.0 0.0 0.0 0.0 0.0 0.0 0.0 0.0 0.0 0.0 0.0 0.11905509528755344 0.0 0.0 0.0 0.0 0.0 0.21197555614598682 0.0 0.0 0.0 0.0 0.0 0.0 0.0 0.0 0.0 0.0 0.0 0.0 0.0 0.01618318398106326 0.0 0.0 0.0 0.0 0.0 0.0 0.0 0.0 0.0 0.0 0.0 0.0 0.0 0.0 0.0 0.0 0.0 0.002512016617956088 0.0 0.0 0.0 0.0 0.0 0.0 0.0 0.0 0.0 0.0 0.0 0.0 0.007246201782565639 0.004758339170551436 0.0 0.0 0.0 0.0 0.0 0.0 0.0 0.018919876617077266 0.0 0.005725726656094307 0.0 0.0 0.0 0.019425258645227626 0.0 0.0 0.0 0.0 0.0 0.0 0.003177516889635021 0.0 0.0 0.0 0.0 0.0 0.0 0.0 0.0 0.0 0.0 0.0 0.0 0.0 0.0 0.0 0.0 0.0 0.0 0.0 0.0 0.0 0.0 0.0 0.0 0.0023197228725062493 0.0 0.0 0.0 0.0 0.0 0.08336479868949212 0.0 0.1943842568657407 0.0 0.0 0.0 0.0 0.0 0.0 0.0 0.0 0.0 0.0 0.007205082477959728 0.0 0.0 0.0 0.0 0.0 0.0 0.0 0.0 0.0 0.0 0.0 0.0 0.0 0.0 0.0 0.07611711696011741 0.0 0.01746182042091933 0.0 0.0 0.019558865388301858 0.0 0.0 0.0 0.0 0.0 0.0 0.0 0.008146138668308675 0.0 0.01327353947498359 0.0 0.013124442095031184 0.0 0.0 0.0 0.0 0.0 0.0 0.07062181352758592 0.0 0.0 0.0 0.0 0.0 0.0 0.0 0.0 0.0 0.0 0.0 0.0 0.0 0.0 0.0 0.0 0.0 0.0 0.0 0.0 0.0 0.0 0.0 0.009633239808613182 0.0 0.0 0.0 0.0 0.0 0.0 0.0 0.0 0.0 0.009083322199438077 0.005485621784482642 0.0 0.0 0.0 0.06635607939725932 0.08290007958314696 0.0 0.0 0.0 0.0 0.0 0.0 0.0 0.0 0.0 0.0 0.0 0.0 0.0 0.03305508276840917 0.0 0.0 0.0 0.0 0.0 0.0 0.0 0.0 0.02264537478627762 0.16154797934323573 0.0 0.0 0.0 0.0 0.0 0.0 0.0 0.0 0.0 0.0 0.0 0.0564672440801563 0.0 0.0 </TABLE>
    </DEFINITION>
    <DEFINITION>
      <FOR>Depression</FOR>
      <GIVEN>AtHome</GIVEN>
      <TABLE>0.513 0.487 0.297 0.7030000000000001 </TABLE>
    </DEFINITION>
    <DEFINITION>
      <FOR>Education</FOR>
      <GIVEN>Gender</GIVEN>
      <GIVEN>Country</GIVEN>
      <TABLE>0.5465091299677766 0.18979591836734694 0.2636949516648765 0.6677727315043623 0.21297801313806466 0.11924925535757294 0.7082728227329512 0.22555166221947348 0.06617551504757532 0.39241830766754304 0.32956394984886694 0.27801774248359 0.46773986490313274 0.29944269710436594 0.23281743799250132 0.5131675441357709 0.3013295959772698 0.18550285988695922 0.3866581165953113 0.41914524433714945 0.19419663906753928 0.5597648595689092 0.2851077726975833 0.15512736773350752 0.4788573889899326 0.2934416222759185 0.2277009887341489 0.3274785612110133 0.3283620804549817 0.34415935833400496 0.39830097172127 0.40864667823560835 0.19305235004312166 0.7848301862088203 0.11718887870524812 0.09798093508593159 0.42429582980065056 0.21707834420843822 0.3586258259909112 0.6670553871358947 0.23559429692926354 0.09735031593484168 0.7101955382436566 0.21764120017620014 0.0721632615801433 0.5348156359849997 0.2357889627420125 0.22939540127298777 0.3454449360802527 0.26690037098219643 0.3876546929375509 0.5304551811250958 0.2433166418550097 0.22622817701989445 0.5342332962337989 0.23925609449610455 0.22651060927009659 0.3990417353373664 0.31071065538986864 0.29024760927276494 0.39609915428916764 0.41555482012007583 0.18834602559075653 0.5615871784929559 0.3401619921588902 0.09825082934815389 0.5267518592305878 0.1739724834617225 0.29927565730768974 0.41918492581607175 0.3475301836983544 0.2332848904855738 0.517757572713116 0.2810569146531371 0.20118551263374693 0.48293768545994065 0.1688044414664497 0.34825787307360967 0.5727511950171407 0.2996475302979093 0.12760127468495003 0.6751110940851976 0.23702497701501685 0.08786392889978548 0.8475629128308187 0.11729751895142819 0.03513956821775302 0.4765719238519449 0.24539119021988723 0.2780368859281679 0.4534252136422732 0.224801859531383 0.32177292682634384 0.5066617964571138 0.164820895493845 0.3285173080490412 0.549505713801771 0.24656577605075006 0.20392851014747895 0.6251099517705894 0.27479961242660955 0.10009043580280107 0.6614185241470799 0.234116121392032 0.10446535446088806 0.7555128345510463 0.11233706959049244 0.13215009585846127 0.661321823076209 0.22570314675577832 0.11297503016801262 0.4819139830211184 0.3783233759154618 0.13976264106341985 0.6356119516948983 0.253521409769526 0.11086663853557578 0.5676780353781185 0.27218764309821414 0.16013432152366738 0.5046727296628704 0.30209814724077905 0.19322912309635065 0.4983402041555241 0.2376118758297391 0.2640479200147368 0.5091095580821251 0.23646604777302596 0.2544243941448489 0.42568841865776 0.2912591464848845 0.2830524348573555 0.2929736088904234 0.45302234884908904 0.2540040422604876 0.4978518807827504 0.3275242084281693 0.1746239107890803 0.46986076986076986 0.24152529152529154 0.28861393861393864 0.5977901876367148 0.23736454063406567 0.1648452717292196 0.5047169093804506 0.37697482351091116 0.11830826710863836 0.507043857905027 0.25709615352752097 0.23585998856745202 0.5830727575014397 0.23903015585887388 0.17789708663968637 0.5805048104541963 0.283698879475597 0.13579631007020662 0.476291912661368 0.2628741252575374 0.2608339620810946 0.5164354214247591 0.2295224195395402 0.2540421590357007 0.7561077079992011 0.2080846748411367 0.03580761715966216 0.4150514540207924 0.20555255425401553 0.37939599172519206 0.54520878174774 0.3048643994834266 0.1499268187688334 0.41390301799766094 0.3255446171396943 0.26055236486264477 0.5423396226415095 0.14218867924528303 0.3154716981132075 0.777933962534783 0.1643382388096809 0.057727798655536115 0.4457401303968942 0.24106620078976798 0.3131936688133378 0.5253153296266878 0.24821922160444798 0.22646544876886418 0.6127661643583013 0.22507850284225725 0.1621553327994414 0.6928661507130607 0.20768178271158316 0.09945206657535617 0.8965575178284733 0.0795716188129286 0.023870863358598116 0.7447715131671706 0.21144235740134412 0.043786129431485285 0.4858766517366265 0.24834514377320432 0.2657782044901692 0.5982838630592767 0.25041590053410384 0.15130023640661938 0.6628912462957124 0.22589520169611738 0.1112135520081702 0.5276907690109576 0.31014320727136846 0.16216602371767394 0.6298275378089327 0.24962115577962507 0.12055130641144216 0.33178698907543835 0.35170919113375876 0.31650381979080283 0.31575108663869716 0.332429306883852 0.3518196064774508 0.5484648671167867 0.2506154602764977 0.20091967260671556 0.47661042249406077 0.2528321430330707 0.27055743447286845 0.5514773966051475 0.22506982720273086 0.2234527761921217 0.579720025329375 0.2332699719575763 0.18701000271304866 0.6940887265387296 0.19856674644571273 0.10734452701555769 0.4825804589406841 0.18600086592581902 0.3314186751334969 0.5290999619882782 0.24378773547377633 0.22711230253794543 0.3836470028512622 0.23788034618050255 0.37847265096823524 0.537663787399342 0.27706683831241025 0.18526937428824783 0.5853706030025304 0.30919532424891805 0.10543407274855156 0.48213937242138355 0.25093213976271017 0.2669284878159063 0.4309904724131292 0.4249341903285656 0.1440753372583052 0.681710774931442 0.18509264001790635 0.1331965850506516 0.44317586184775654 0.4301454654126527 0.12667867273959077 0.703575106425094 0.19147496786576032 0.10494992570914567 0.6202885414306216 0.21194954301684418 0.16776191555253417 0.48135091706020106 0.24016925270076608 0.2784798302390329 0.506305247967745 0.30564680459169985 0.18804794744055517 0.5335378118129757 0.3080314602837306 0.1584307279032937 0.5737376163829436 0.23921319660862086 0.18704918700843556 0.7034582325935771 0.1898359087357332 0.10670585867068977 0.5466334854140744 0.2594663348541407 0.1939001797317849 0.5754344968599386 0.2508397838469403 0.17372571929312108 0.3964391847183111 0.3159329692680768 0.2876278460136122 0.763765044096867 0.17298072081729443 0.06325423508583865 0.3297123437310353 0.4704013064250957 0.19988634984386897 0.44227700743870374 0.2642650066296604 0.29345798593163586 0.507246258614362 0.23913061207845696 0.253623129307181 0.5991901398425833 0.2540421831283016 0.1467676770291151 0.38568318484934955 0.4378269553913953 0.17648985975925516 0.7595459128397115 0.1759707036324685 0.06448338352781995 0.6990527814279457 0.2518342093736312 0.049113009198423124 0.5096080773838189 0.2929575094681068 0.1974344131480743 0.41221473687263865 0.3135410699134874 0.27424419321387394 0.6948935341067427 0.19769416245587665 0.10741230343738069 0.4642857142857143 0.22615665584415584 0.30955762987012986 0.5751654836235823 0.3159774636357978 0.10885705274061978 0.40892260272601727 0.29930148309749216 0.2917759141764906 0.5117599768466412 0.2941795028459337 0.19406052030742516 0.8492105247615391 0.09835537312110564 0.052434102117355226 0.7218904653359797 0.19417311642499935 0.08393641823902097 0.412235262634758 0.2889077911155287 0.29885694624971326 0.8079631416852354 0.16049652989681942 0.031540328417945185 0.5495333990866357 0.23894213186430832 0.21152446904905595 0.7330883910291107 0.22095698114983645 0.045954627821052876 0.7594412745352028 0.19443707256248724 0.04612165290230993 0.7091448960076273 0.16327643294513158 0.1275786710472411 0.6793430091243975 0.22672836184737294 0.09392862902822954 0.42004983451102496 0.29250715449394044 0.2874430109950346 0.4938537601728825 0.21645612396226374 0.28969011586485377 0.5382063831480938 0.2534445228285246 0.20834909402338164 0.45025312416539853 0.29451703028284426 0.2552298455517571 0.39197438044070193 0.4793453140536396 0.12868030550565845 0.6301291958425788 0.20338029424353868 0.1664905099138826 0.5747127659008863 0.27054767208791675 0.15473956201119696 0.5675543873123013 0.27201738903642164 0.16042822365127699 0.574486218122033 0.3196631135766603 0.1058506683013067 0.6952258370279154 0.15427015378508166 0.1505040091870029 0.4867556434556968 0.23480679813282196 0.27843755841148127 0.41526656009795987 0.28790420026581093 0.2968292396362292 0.4503760389442868 0.26577624981772907 0.28384771123798413 0.5540970453780673 0.24319387768596984 0.20270907693596285 0.3988813871678186 0.43136448474897143 0.16975412808320997 0.5731521992663222 0.22441493083779218 0.2024328698958856 0.3951852423250866 0.3062550332100996 0.29855972446481377 0.40153799824946035 0.4254642166616477 0.17299778508889196 0.787860087031186 0.13653490715452474 0.07560500581428918 0.5033826935760298 0.23553360895368014 0.26108369747029003 0.6977524725093399 0.15929609509621936 0.14295143239444072 0.6535792212418654 0.23338252787867608 0.11303825087945853 0.582931267470961 0.19661630476673675 0.22045242776230223 0.6920147747610526 0.2127616363936382 0.09522358884530926 0.7322089974788297 0.18890014993006055 0.07889085259110973 0.5655292774639686 0.2606317707939244 0.17383895174210698 0.3355655512135379 0.34777839806601235 0.3166560507204498 0.8750656491246008 0.07926812264418406 0.04566622823121506 0.5968704057319567 0.30687598222282303 0.09625361204522027 0.3430515573366466 0.3820790349441902 0.2748694077191632 0.4697886050192177 0.19826757856658378 0.3319438164141985 0.4944994553217186 0.2115002601205352 0.29400028455774624 0.6941866583080523 0.1993977319795363 0.10641560971241143 0.5649615754082613 0.26837175792507206 0.16666666666666666 0.4567555963730555 0.42877159860222175 0.1144728050247227 0.7985355278801706 0.13107490256744536 0.07038956955238405 0.6566340154496003 0.2510332509332982 0.0923327336171015 0.4459164905337155 0.28866007807470867 0.2654234313915758 0.41785239386086886 0.44132523416780445 0.1408223719713267 0.44128063157829506 0.4344068263996257 0.12431254202207921 0.5756386346879473 0.2399759292188923 0.18438543609316044 0.5252323256087519 0.3926596870956358 0.08210798729561228 0.5784818887948935 0.23810744529040306 0.18341066591470345 0.5582103292175553 0.23214418182711943 0.20964548895532525 0.310321762703631 0.33633700742776973 0.3533412298685993 0.8238870228960175 0.16249022749915681 0.013622749604825712 0.9086619173691695 0.06905045265514341 0.022287629975687086 0.413866448569533 0.4400006737554474 0.14613287767501967 0.46939045678027935 0.28365510425870566 0.24695443896101496 0.5000175240487379 0.2550730128259199 0.2449094631253422 0.38239457163200097 0.39932630117949014 0.21827912718850886 0.5716117999144934 0.28721675929884566 0.14117144078666097 0.5912897589277605 0.2666723971189513 0.14203784395328822 0.5477511024805134 0.3457037654708478 0.10654513204863883 0.6973593173431735 0.22578413284132842 0.07685654981549815 0.5751406111239022 0.1627470973259218 0.26211229155017596 0.6530523429832075 0.2071350242695961 0.1398126327471964 0.6215515310969071 0.1566740309709079 0.22177443793218504 0.7358308145859004 0.12509876189246388 0.1390704235216357 0.5322526173590003 0.19914443318698638 0.2686029494540133 0.7031904266239938 0.19543859126540866 0.10137098211059756 0.7661641808018387 0.1671896673029542 0.06664615189520713 0.3976404787202053 0.32937573922979774 0.272983782049997 0.49152559850847233 0.3141530135788414 0.19432138791268624 0.5018143534754049 0.29356125079750617 0.20462439572708885 0.3784952194754753 0.4130697292691469 0.20843505125537776 0.5664733310587968 0.2542931877629933 0.17923348117820995 0.4931951841037914 0.27902811016110096 0.22777670573510767 0.33336554308932037 0.33693776943745285 0.3296966874732267 0.40227347213357945 0.4027378793045569 0.19498864856186368 0.7613099718215544 0.1418397430663665 0.09685028511207913 0.39699861820116894 0.21154875217729754 0.3914526296215335 0.7108186945767819 0.22955323581639422 0.059628069606823896 0.7030872820345336 0.24005665682153812 0.05685606114392821 0.5150844723073327 0.268324460906324 0.2165910667863433 0.3532684476502272 0.2661301723970649 0.38060137995270793 0.5330180302279717 0.24390813837195174 0.22307383140007664 0.5124934291221307 0.2431750481864377 0.24433152269143157 0.39230631046783176 0.3066492160032848 0.3010444735288834 0.39822922243522213 0.42222337357304457 0.1795474039917333 0.5451610733741341 0.3361580021072926 0.11868092451857332 0.5289441005534474 0.16657080092283255 0.3044850985237201 0.4024329966767983 0.33968390814101723 0.25788309518218444 0.5017531006332094 0.2840546339421215 0.21419226542466901 0.4748672963341391 0.16472699180103173 0.36040571186482917 0.552721249408424 0.32285849503076197 0.12442025556081401 0.6551666446185811 0.2429128374329803 0.10192051794843861 0.8651551458095152 0.10742588859338854 0.02741896559709624 0.4745404490582462 0.2468513823337632 0.27860816860799065 0.46309975747537235 0.23139146883956876 0.3055087736850589 0.4990087103592948 0.16256949238337365 0.33842179725733157 0.5459584608553636 0.24422385012860764 0.20981768901602874 0.6624100039971561 0.25632328833618895 0.08126670766665502 0.671174777175268 0.23220226408626277 0.09662295873846921 0.8183129460442854 0.08645852204429591 0.09522853191141872 0.706927580813055 0.22876210303629463 0.06431031615065044 0.4610875528114112 0.3804696439975008 0.158442803191088 0.6196583368055203 0.25935712035446795 0.12098454284001178 0.523846955689605 0.27468001845554435 0.20147302585485055 0.4880407114489935 0.29379214490135563 0.2181671436496508 0.48720528785552764 0.22312797703628262 0.28966673510818974 0.5097665205509602 0.24253984556975955 0.2476936338792803 0.4257752896641495 0.29010202693917686 0.2841226833966736 0.3091902997823404 0.45806158049151197 0.23274811972614753 0.5075738449886392 0.3233400656399899 0.16908608937137087 0.46715928256390343 0.23951034226328038 0.2933303751728161 0.5622293530520475 0.2406003885377739 0.19717025841017868 0.48608219465288666 0.34261127034378286 0.1713065350033305 0.5035414600484734 0.2552244791636395 0.241234060787887 0.5868546422294679 0.2377965127857738 0.17534884498475825 0.5645586109162742 0.2881733205456706 0.1472680685380552 0.47254227735012844 0.25525139426151483 0.27220632838835673 0.5071402653496621 0.22684266228746341 0.2660170723628745 0.7566130892852575 0.20473115823086166 0.038655752483880874 0.39102058209029855 0.19103275698262687 0.41794666092707455 0.5228769885727089 0.3081514676226753 0.16897154380461574 0.4124966205820562 0.32345674885738807 0.2640466305605557 0.5267630241423126 0.16057814485387548 0.3126588310038119 0.7947270074487419 0.16087234750556736 0.04440064504569074 0.4383677939463604 0.23225730215814638 0.32937490389549323 0.5310426698417047 0.24445334204361463 0.2245039881146807 0.6168269929954197 0.22846494974401213 0.15470805726056824 0.7392086314183554 0.17949181257736394 0.08129955600428068 0.936397355041258 0.049210957686216764 0.014391687272525213 0.757946412337394 0.22364006016628374 0.018413527496322253 0.49542371859360274 0.24458034357019767 0.25999593783619956 0.5831881932349436 0.2516270968924741 0.16518470987258227 0.6659957580258756 0.21105625621337457 0.12294798576074986 0.5196511432884218 0.3062223961536311 0.17412646055794712 0.6021943734243183 0.2523551709085726 0.14545045566710912 0.32267283781518447 0.3545357532739933 0.32279140891082225 0.31660704822469526 0.3301432237190751 0.3532497280562296 0.5345286360085919 0.25466705012361013 0.21080431386779794 0.4802458072357229 0.2587951915909098 0.2609590011733673 0.5174872997264557 0.22298561637658942 0.25952708389695495 0.6000984046667073 0.2206020818783075 0.1792995134549852 0.7186887996053194 0.17737675308577408 0.10393444730890652 0.4765836039700124 0.1921267490211552 0.33128964700883234 0.5269411200870042 0.2442661554555048 0.228792724457491 0.3816829173166927 0.23550897035881435 0.38280811232449297 0.5300590696760061 0.280281400073018 0.1896595302509759 0.5732880016023479 0.3093849763531052 0.11732702204454691 0.48146841024671816 0.25101053361461867 0.26752105613866317 0.4313507547702916 0.4244582082511752 0.14419103697853317 0.6915607294819759 0.18954426185898599 0.11889500865903811 0.43938740540939386 0.42936223590466743 0.13125035868593868 0.6973927307086952 0.2233376721878087 0.0792695971034961 0.606361686919228 0.21272337383845605 0.18091493924231594 0.4877818734781479 0.23932158618356322 0.2728965403382889 0.4975210943585786 0.29565954906485925 0.20681935657656214 0.5394404918025645 0.3107371955461254 0.14982231265131019 0.5455545282861788 0.24466197238641493 0.20978349932740634 0.7287140285448064 0.18804788918174842 0.08323808227344526 0.4815420776416668 0.2457622697191078 0.27269565263922535 0.5833644441125961 0.24303740760098558 0.17359814828641829 0.3785801029014281 0.30747873675015985 0.313941160348412 0.6966205956180854 0.2179336205026496 0.08544578387926494 0.33774448951954433 0.4698415903920742 0.1924139200883815 0.4358986446670595 0.25211549793753685 0.31198585739540363 0.5110452377883747 0.2335352493878077 0.25541951282381753 0.6067478843006944 0.2378106201943606 0.155441495504945 0.3817630677194953 0.43876136012010497 0.17947557216039975 0.7539086482094991 0.1826653110005173 0.06342604078998364 0.6982834378112367 0.23908840588200833 0.06262815630675493 0.48695660156130016 0.3107477343283023 0.2022956641103975 0.41472121753017993 0.3181142060845194 0.2671645763853007 0.7125357432401976 0.2014421405623953 0.08602211619740703 0.4591057406145792 0.2183656638818172 0.3225285955036036 0.5421848257241165 0.3288728887046171 0.1289422855712664 0.40536311877960796 0.2992524664261811 0.29538441479421096 0.500939750455037 0.2913918858318605 0.20766836371310243 0.8527239798756588 0.10057736564596684 0.04669865447837433 0.7235879490978636 0.1932810020701323 0.08313104883200403 0.4129496960825182 0.27237210745203727 0.31467819646544454 0.8377403189725171 0.13328161197042115 0.028978069057061684 0.5351707563004936 0.23406476169121063 0.23076448200829575 0.7106537744010452 0.23610972157649732 0.0532365040224575 0.7878456230834463 0.17580307060381337 0.036351306312740396 0.7167301549433146 0.16191359088603838 0.12135625417064703 0.6505389388592424 0.23344864208328672 0.11601241905747083 0.4169303023622829 0.2787197451578383 0.3043499524798788 0.5043231534025161 0.21966849652388842 0.2760083500735954 0.5300572525376911 0.24887166098309332 0.22107108647921558 0.43390696168933074 0.2836873921489789 0.2824056461616903 0.406595250748189 0.46684194333342655 0.12656280591838448 0.6290033911728763 0.20828312473585825 0.16271348409126551 0.5543353091296012 0.2712347951672771 0.17442989570312178 0.5684269139740367 0.26945285858883905 0.16212022743712423 0.544176948680566 0.3332775836932303 0.12254546762620375 0.7404403929644815 0.14768499938984578 0.11187460764567275 0.4887113274851495 0.2375324380138742 0.2737562345009763 0.41190013682106946 0.2871024493150287 0.3009974138639019 0.4447485677912158 0.26125560670880643 0.29399582549997777 0.5322315481110517 0.24766616424369134 0.22010228764525697 0.37533589533200135 0.42066689227089193 0.2039972123971067 0.5779302068904214 0.22534981740605486 0.19671997570352373 0.3927561026568435 0.30045331086473287 0.3067905864784236 0.4055704261730053 0.43136473655397 0.16306483727302465 0.7610518997087917 0.15987874277334593 0.07906935751786237 0.5330467198948766 0.23974214312580044 0.22721113697932288 0.6809829619158974 0.1609930253797067 0.15802401270439592 0.6540937615904713 0.24198360860910917 0.10392262980041958 0.5840976244245413 0.19685168400083983 0.21905069157461887 0.6939045334351062 0.22440912684349698 0.08168633972139683 0.7422584695506981 0.18731323257555177 0.07042829787375018 0.553340365804148 0.2604489446088824 0.18621068958696957 0.3306646373187759 0.3448933686398451 0.324441994041379 0.9019452637996643 0.06829987304083651 0.02975486315949916 0.532094923166699 0.31111003047396746 0.15679504635933347 0.34039878617062397 0.37508484326443403 0.284516370564942 0.4653466082175496 0.19670852217846793 0.33794486960398246 0.4829622543146822 0.2066793121196858 0.310358433565632 0.6781600921393608 0.21307227181111432 0.10876763604952491 0.5582338902147972 0.25859188544152745 0.18317422434367542 0.45208453957620853 0.42033329060221114 0.12758216982158035 0.8525543204678067 0.10533722538997078 0.04210845414222259 0.7176695388830804 0.22224594936135478 0.06008451175556486 0.45169976240565085 0.2705066506078055 0.27779358698654366 0.43301880647292557 0.4518671542763556 0.11511403925071885 0.4405106779438953 0.4341102198671383 0.12537910218896636 0.5461255415968125 0.24955365890831502 0.20432079949487253 0.5102661596958175 0.3923954372623574 0.09733840304182509 0.5591994869407083 0.23891519586741283 0.2018853171918789 0.5202179389536586 0.22530723714155668 0.25447482390478465 0.31287194913031935 0.34635935778552923 0.3407686930841514 0.8148439550925903 0.17505269187469097 0.010103353032718655 0.9257543154616863 0.05731560413964427 0.016930080398669434 0.41345651294478475 0.4453984324324856 0.14114505462272964 0.44025013345534963 0.273584991992679 0.2861648745519713 0.5017616854356148 0.25390767229200756 0.24433064227237747 0.37931909622984733 0.3932234450001831 0.2274574587699696 0.5758111572805233 0.2600123773318009 0.16417646538767572 0.5659087471137407 0.2739006527441226 0.16019060014213668 0.5478183002872047 0.3574893705428037 0.09469232916999164 0.6834428342397284 0.2326239351167835 0.08393323064348811 0.5512673587703923 0.16034110826479708 0.28839153296481057 0.6927808801197408 0.18799763759711213 0.11922148228314708 0.5943104798847034 0.16265382730742378 0.24303569280787274 0.7352745647008957 0.13290705067428138 0.13181838462482293 </TABLE>
    </DEFINITION>
    <DEFINITION>
      <FOR>Gender</FOR>
      <GIVEN>Country</GIVEN>
      <TABLE>0.4716981132075472 0.5283018867924528 0.513379948477998 0.48662005152200205 0.49472129705272416 0.5052787029472758 0.5092431112661319 0.49075688873386814 0.6925596151878006 0.3074403848121994 0.48773969399345224 0.5122603060065478 0.4704091985120054 0.5295908014879946 0.4845360824742268 0.5154639175257731 0.4980041892265739 0.5019958107734261 0.49238578680203043 0.5076142131979695 0.49920255183413076 0.5007974481658692 0.4959673922469864 0.5040326077530136 0.4949486152238286 0.5050513847761714 0.49919498347597663 0.5008050165240234 0.4993602991831513 0.5006397008168487 0.505832709787422 0.494167290212578 0.48572248529200746 0.5142775147079925 0.6429006703229738 0.3570993296770262 0.48586118251928023 0.5141388174807198 0.48985156013329295 0.5101484398667071 0.4655117777543044 0.5344882222456956 0.49743589743589745 0.5025641025641026 0.502041170850343 0.49795882914965695 0.4915114499476425 0.5084885500523575 0.4843205574912892 0.5156794425087108 0.5196304849884527 0.48036951501154734 0.5307994757536042 0.4692005242463958 0.4835069444444444 0.5164930555555556 0.49567966280295045 0.5043203371970495 0.49620056723925726 0.5037994327607427 0.4959207459207459 0.504079254079254 0.49292950612072606 0.5070704938792739 0.5130648860834685 0.48693511391653155 0.5045108103904185 0.49548918960958155 0.5000772916988715 0.4999227083011285 0.4991243230786957 0.5008756769213043 0.4994423791821561 0.5005576208178439 0.4909314845348537 0.5090685154651463 0.5041128084606346 0.49588719153936545 0.5018181818181818 0.49818181818181817 0.49980190174326466 0.5001980982567353 0.4965590259396506 0.5034409740603494 0.5 0.5 0.4921441339730925 0.5078558660269075 0.4939014081105234 0.5060985918894766 0.5256673511293635 0.47433264887063653 0.4972499140598144 0.5027500859401857 0.49967408511034545 0.5003259148896546 0.5051912758692774 0.49480872413072263 0.5002014620387958 0.4997985379612042 0.5052695541299757 0.49473044587002435 0.4998690094375433 0.5001309905624567 0.4912776386480875 0.5087223613519125 0.47268588770864944 0.5273141122913505 0.5002632072020629 0.49973679279793715 0.49295010845986986 0.5070498915401301 0.5067415730337078 0.4932584269662922 0.4840279120977221 0.5159720879022779 0.5087719298245614 0.49122807017543857 0.509208103130755 0.49079189686924496 0.4938749869123652 0.5061250130876348 0.4767535608707337 0.5232464391292664 0.5068051811427444 0.4931948188572556 0.48281262234750605 0.517187377652494 0.4888079125455492 0.5111920874544509 0.556047197640118 0.443952802359882 0.4908376963350785 0.5091623036649215 0.5 0.5 0.49254919804345354 0.5074508019565465 0.5019157088122606 0.49808429118773945 0.4995895752103427 0.5004104247896572 0.4818181818181818 0.5181818181818182 0.47585285655569254 0.5241471434443075 0.5035362455935498 0.4964637544064502 0.519701877463558 0.480298122536442 0.4962190884937666 0.5037809115062334 0.5052222785054393 0.4947777214945607 0.5060290002543882 0.49397099974561176 0.5028089887640449 0.4971910112359551 0.49733865602129074 0.5026613439787093 0.4865594961882665 0.5134405038117336 0.49643947100712105 0.503560528992879 0.5061875061875062 0.4938124938124938 0.4883344700153849 0.5116655299846151 0.4851372570252856 0.5148627429747143 0.49686156655380986 0.5031384334461901 0.4946908182386009 0.505309181761399 0.48811112459056166 0.5118888754094384 0.4915254237288136 0.5084745762711864 0.5007145340079564 0.4992854659920436 0.6092227240313762 0.39077727596862377 0.5020225972939043 0.4979774027060957 0.5031363967906638 0.4968636032093362 0.502531901964756 0.49746809803524406 0.5050162289760991 0.4949837710239009 0.4918032786885246 0.5081967213114754 0.47989152916302796 0.5201084708369721 0.49317647058823527 0.5068235294117647 0.46256299496040315 0.5374370050395969 0.5056910569105691 0.49430894308943085 0.4603340292275574 0.5396659707724426 0.49607918403158585 0.5039208159684141 0.4793552036199095 0.5206447963800904 0.49883199228744113 0.5011680077125589 0.632768361581921 0.36723163841807904 0.48914756025867134 0.5108524397413287 0.500240038406145 0.49975996159385505 0.5008139179977618 0.49918608200223824 0.5010309278350515 0.49896907216494846 0.4819043037412574 0.5180956962587426 0.4943820224719101 0.5056179775280899 0.4930232558139535 0.5069767441860464 0.4856089046960416 0.5143910953039583 0.5019885108263368 0.4980114891736632 0.49369085173501576 0.5063091482649842 0.49307494094910886 0.5069250590508911 0.5140219092331768 0.4859780907668232 0.4845691382765531 0.5154308617234469 0.5025311025311026 0.49746889746889744 0.5067176210664597 0.4932823789335403 0.49282004277421326 0.5071799572257867 0.4980324074074074 0.5019675925925926 0.5051219966474204 0.4948780033525796 0.45604530042993463 0.5439546995700654 0.4915804422803814 0.5084195577196187 0.6601005025125628 0.3398994974874372 0.5146144824210633 0.48538551757893666 0.5007065473386717 0.4992934526613283 0.4967087050138419 0.5032912949861581 0.5023816791068935 0.49761832089310654 0.5104831358249772 0.4895168641750228 0.4846021902625676 0.5153978097374323 0.48909062573053846 0.5109093742694615 0.47299013382827 0.52700986617173 0.5083037615330022 0.49169623846699784 0.5071413344702622 0.4928586655297378 0.7532650900105895 0.2467349099894105 0.4863622275028412 0.5136377724971588 0.46343744155601274 0.5365625584439873 0.4914864971885642 0.5085135028114358 0.5773147742857977 0.4226852257142023 0.49956788825823933 0.5004321117417607 0.48760432007854687 0.5123956799214531 0.5234676007005254 0.47653239929947455 0.508955223880597 0.491044776119403 0.49891206962754386 0.5010879303724561 0.4684642801797613 0.5315357198202386 0.48986340762041697 0.5101365923795831 0.5002881949488557 0.4997118050511443 0.5025817555938038 0.4974182444061962 0.486784140969163 0.513215859030837 0.49782293178519593 0.5021770682148041 0.5007316359379572 0.4992683640620428 0.490418118466899 0.509581881533101 0.5154639175257731 0.48453608247422686 0.5011422880909144 0.49885771190908557 0.4992161535084969 0.5007838464915031 0.4974638129407398 0.5025361870592602 0.4869588946657858 0.5130411053342142 0.5040231734792404 0.4959768265207596 0.4924267923258162 0.5075732076741838 0.5054095826893354 0.49459041731066455 0.5 0.5 0.4939068100358423 0.5060931899641576 0.49576742197520307 0.5042325780247969 0.4935155219944864 0.5064844780055135 0.49962072889011483 0.5003792711098851 0.4926020465788701 0.5073979534211299 0.4632245274943119 0.5367754725056881 0.4829578278451762 0.5170421721548237 0.49481539026440446 0.5051846097355955 0.4987709832134293 0.5012290167865707 0.509090909090909 0.49090909090909096 0.4925305091878244 0.5074694908121756 0.49917065787564013 0.5008293421243599 0.5066666666666667 0.4933333333333333 0.5177664974619289 0.48223350253807107 0.5038063232974419 0.4961936767025581 0.49282762389425866 0.5071723761057414 0.47681802663024925 0.5231819733697507 </TABLE>
    </DEFINITION>
    <DEFINITION>
      <FOR>Group</FOR>
      <TABLE>0.13562560943229712 0.26251934485200207 0.2986056705016329 0.08332431596879855 0.14641407640823736 0.00545571721103101 0.06805526562600096 </TABLE>
    </DEFINITION>
    <DEFINITION>
      <FOR>InternetAccess</FOR>
      <GIVEN>Country</GIVEN>
      <TABLE>0.9717 0.028299999999999992 0.08259999999999999 0.9174 0.36 0.64 0.7223767711000001 0.2776232288999999 1.0 0.0 0.7429490687000001 0.2570509312999999 0.6654394969 0.33456050309999996 0.73 0.27 0.8654504885000001 0.13454951149999994 0.8752942813 0.12470571870000002 0.8109999907 0.18900000930000005 0.052000000000000005 0.948 0.9152423735 0.08475762649999996 0.29 0.71 0.18 0.8200000000000001 0.129 0.871 0.7016248358999999 0.2983751641000001 0.9953951246 0.004604875399999986 0.85 0.15000000000000002 0.7321175294 0.26788247060000003 0.8508791245 0.14912087549999997 0.470826258 0.529173742 0.5513905053 0.4486094947 0.7391244005000001 0.26087559949999994 0.8176077839 0.1823922161 0.95 0.050000000000000044 0.4177264453 0.5822735547 0.61 0.39 0.04 0.96 0.965 0.03500000000000003 0.9314608695 0.06853913050000005 0.8232748693 0.17672513069999995 0.7064214286000001 0.2935785713999999 0.36288954570000004 0.6371104542999999 0.335 0.665 0.125 0.875 0.08650000000000001 0.9135 0.6500690072 0.34993099279999995 0.08478170295 0.91521829705 0.6194339776000001 0.3805660223999999 0.8053018607999999 0.19469813920000012 0.6797080866 0.32029191339999996 0.9080209879000001 0.09197901209999992 0.8133889705 0.18661102949999997 0.8981294133 0.10187058670000004 0.59 0.41000000000000003 0.9654914573000001 0.03450854269999992 0.758 0.242 0.575 0.42500000000000004 0.5406292473 0.45937075270000005 0.719142004 0.28085799600000005 0.013089069799999999 0.9869109302 0.9320564609 0.06794353909999995 0.8905828666 0.10941713340000003 0.25 0.75 0.9217027106000001 0.07829728939999991 0.4996637301 0.5003362699 0.8333974409 0.1666025591 0.3530405287 0.6469594713 0.61 0.39 0.9481820132 0.05181798680000005 0.7253158414 0.27468415859999995 0.53 0.47 0.23 0.77 0.28 0.72 0.1886 0.8114 0.7811584474 0.21884155260000004 0.5907173536 0.4092826464 0.4440104984 0.5559895016 0.37325836789999994 0.6267416321000001 0.3213636364 0.6786363636 0.7832093274 0.21679067259999996 0.8477115202000001 0.15228847979999993 0.5372649449 0.4627350551 0.41 0.5900000000000001 0.9199989097 0.08000109030000002 0.8411087002 0.15889129980000005 0.4935999889 0.5064000111 0.99 0.010000000000000009 0.8678787762 0.13212122380000002 0.7609999999999999 0.2390000000000001 0.6821451709 0.31785482909999996 0.6679031443 0.3320968557 0.9273039781 0.07269602190000002 0.8594259898 0.14057401020000004 0.2256511937 0.7743488063 0.38199037760000004 0.6180096224 0.7880000044000001 0.21199999559999994 0.1458181818 0.8541818182 0.9650506034999999 0.03494939650000006 0.9859999513 0.014000048700000045 0.2551043508 0.7448956492000001 0.7818077488999999 0.21819225110000007 0.22 0.78 0.21758920620000002 0.7824107938 0.5081524478 0.4918475522 0.35 0.65 0.42301733570000005 0.5769826643 0.8305559069999999 0.16944409300000007 0.9882242384 0.011775761600000045 0.8889796078000001 0.11102039219999993 0.8412036304999999 0.1587963695000001 0.7612451989 0.23875480110000002 0.15 0.85 0.6318566588 0.36814334120000003 0.7197 0.2803 0.8140553811 0.18594461890000002 0.26 0.74 0.8685876183000001 0.13141238169999991 0.2362108195 0.7637891805 0.8136996541000001 0.1863003458999999 0.6250002848 0.3749997152 0.151 0.849 0.20800963660000002 0.7919903634 0.6488490358 0.3511509642 0.155 0.845 0.8955501191999999 0.10444988080000006 0.405 0.595 0.1022431156 0.8977568844 0.336 0.6639999999999999 0.2786304001 0.7213695999 0.9133333333 0.0866666667 0.9700000121 0.029999987900000025 0.2140351043 0.7859648957 0.9081109306999999 0.09188906930000007 0.9523229327 0.04767706729999999 0.1707090203 0.8292909797 0.6362841477 0.36371585230000003 0.6525179878999999 0.34748201210000007 0.46880000000000005 0.5311999999999999 0.11209196589999999 0.8879080341 0.8683692746 0.13163072539999998 0.0 1.0 0.7826165705 0.2173834295 0.7451524041 0.25484759589999995 0.7062258370000001 0.2937741629999999 0.9965279354000001 0.0034720645999999356 0.7845526895 0.2154473105 0.8499466978 0.15005330220000002 0.26 0.74 0.9786233249999999 0.021376675000000067 0.254 0.746 0.395 0.605 0.7587596245 0.2412403755 0.1192422906 0.8807577094 0.168 0.832 0.5049119318999999 0.49508806810000006 0.7836804864 0.2163195136 0.07977428907 0.92022571093 0.4894517397 0.5105482603 0.8992090413 0.10079095869999999 0.8660130109 0.13398698909999995 0.9453943121999999 0.05460568780000008 0.25643042309999997 0.7435695769 0.79 0.20999999999999996 0.34253401930000005 0.6574659807 0.10400000000000001 0.896 0.193 0.8069999999999999 0.778437476 0.22156252399999998 0.21960000000000002 0.7804 0.2125099741 0.7874900259 0.2749273173 0.7250726827 0.4124872764 0.5875127236 0.7732605293 0.2267394707 0.6669999830000001 0.3330000169999999 0.7766956037999999 0.2233043962000001 0.2 0.8 0.03671965351 0.96328034649 0.7012484430000001 0.2987515569999999 0.8335153377000001 0.16648466229999992 0.8943028486 0.10569715140000002 0.7040000240000001 0.29599997599999994 0.6556000000000001 0.34439999999999993 0.57 0.43000000000000005 0.702900004 0.29709999600000003 0.25719787839999997 0.7428021216 0.3361093932 0.6638906068 0.2671835477 0.7328164523 0.682 0.31799999999999995 0.251 0.749 </TABLE>
    </DEFINITION>
    <DEFINITION>
      <FOR>Online</FOR>
      <GIVEN>Country</GIVEN>
      <TABLE>0.0 1.0 0.0 1.0 1.0 0.0 0.0 1.0 0.0 1.0 0.0 1.0 0.0 1.0 1.0 0.0 0.0 1.0 0.0 1.0 0.0 1.0 1.0 0.0 0.0 1.0 0.0 1.0 0.0 1.0 0.0 1.0 0.0 1.0 0.0 1.0 0.0 1.0 0.0 1.0 0.0 1.0 0.0 1.0 0.0 1.0 0.0 1.0 0.0 1.0 0.0 1.0 0.0 1.0 0.0 1.0 1.0 0.0 0.0 1.0 0.0 1.0 0.0 1.0 0.0 1.0 0.0 1.0 0.0 1.0 0.0 1.0 0.0 1.0 0.0 1.0 0.0 1.0 0.0 1.0 0.0 1.0 0.0 1.0 0.0 1.0 0.0 1.0 0.0 1.0 0.0 1.0 0.0 1.0 0.0 1.0 0.0 1.0 0.0 1.0 0.0 1.0 1.0 0.0 0.0 1.0 0.0 1.0 0.0 1.0 0.0 1.0 0.0 1.0 0.0 1.0 1.0 0.0 0.0 1.0 0.0 1.0 0.0 1.0 0.0 1.0 0.0 1.0 1.0 0.0 0.0 1.0 0.0 1.0 0.0 1.0 0.0 1.0 0.0 1.0 0.0 1.0 0.0 1.0 0.0 1.0 0.0 1.0 0.0 1.0 0.0 1.0 0.0 1.0 0.0 1.0 0.0 1.0 0.0 1.0 0.0 1.0 0.0 1.0 0.0 1.0 0.0 1.0 0.0 1.0 0.0 1.0 0.0 1.0 0.0 1.0 0.0 1.0 0.0 1.0 0.0 1.0 0.0 1.0 0.0 1.0 1.0 0.0 0.0 1.0 0.0 1.0 0.0 1.0 1.0 0.0 0.0 1.0 0.0 1.0 0.0 1.0 0.0 1.0 0.0 1.0 1.0 0.0 0.0 1.0 0.0 1.0 0.0 1.0 0.0 1.0 0.0 1.0 1.0 0.0 0.0 1.0 0.0 1.0 0.0 1.0 0.0 1.0 0.0 1.0 0.0 1.0 0.0 1.0 0.0 1.0 1.0 0.0 0.0 1.0 0.0 1.0 0.0 1.0 0.0 1.0 0.0 1.0 0.0 1.0 0.0 1.0 0.0 1.0 0.0 1.0 0.0 1.0 0.0 1.0 1.0 0.0 0.0 1.0 1.0 0.0 0.0 1.0 0.0 1.0 0.0 1.0 0.0 1.0 0.0 1.0 0.0 1.0 0.0 1.0 0.0 1.0 1.0 0.0 0.0 1.0 0.0 1.0 0.0 1.0 1.0 0.0 0.0 1.0 0.0 1.0 1.0 0.0 1.0 0.0 0.0 1.0 0.0 1.0 0.0 1.0 1.0 0.0 0.0 1.0 0.0 1.0 0.0 1.0 1.0 0.0 0.0 1.0 1.0 0.0 1.0 0.0 0.0 1.0 1.0 0.0 0.0 1.0 0.0 1.0 0.0 1.0 1.0 0.0 0.0 1.0 0.0 1.0 0.0 1.0 0.0 1.0 0.0 1.0 0.0 1.0 0.0 1.0 0.0 1.0 0.0 1.0 0.0 1.0 1.0 0.0 0.0 1.0 0.0 1.0 </TABLE>
    </DEFINITION>
    <DEFINITION>
      <FOR>Radio</FOR>
      <GIVEN>Country</GIVEN>
      <TABLE>1.0 0.0 0.0 1.0 1.0 0.0 0.0 1.0 1.0 0.0 0.0 1.0 1.0 0.0 1.0 0.0 1.0 0.0 1.0 0.0 1.0 0.0 1.0 0.0 1.0 0.0 0.0 1.0 0.0 1.0 0.0 1.0 1.0 0.0 1.0 0.0 1.0 0.0 1.0 0.0 1.0 0.0 0.0 1.0 0.0 1.0 1.0 0.0 1.0 0.0 1.0 0.0 0.0 1.0 0.0 1.0 0.0 1.0 1.0 0.0 1.0 0.0 0.0 1.0 1.0 0.0 0.0 1.0 0.0 1.0 0.0 1.0 0.0 1.0 0.0 1.0 1.0 0.0 0.0 1.0 0.0 1.0 1.0 0.0 1.0 0.0 1.0 0.0 1.0 0.0 0.0 1.0 1.0 0.0 0.0 1.0 1.0 0.0 0.0 1.0 1.0 0.0 1.0 0.0 1.0 0.0 1.0 0.0 0.0 1.0 0.0 1.0 0.0 1.0 1.0 0.0 1.0 0.0 0.0 1.0 1.0 0.0 1.0 0.0 0.0 1.0 0.0 1.0 1.0 0.0 0.0 1.0 1.0 0.0 1.0 0.0 0.0 1.0 0.0 1.0 0.0 1.0 1.0 0.0 1.0 0.0 0.0 1.0 1.0 0.0 1.0 0.0 0.0 1.0 1.0 0.0 1.0 0.0 1.0 0.0 1.0 0.0 1.0 0.0 1.0 0.0 0.0 1.0 1.0 0.0 0.0 1.0 1.0 0.0 1.0 0.0 1.0 0.0 1.0 0.0 1.0 0.0 0.0 1.0 1.0 0.0 0.0 1.0 1.0 0.0 0.0 1.0 1.0 0.0 0.0 1.0 0.0 1.0 1.0 0.0 1.0 0.0 1.0 0.0 1.0 0.0 0.0 1.0 1.0 0.0 0.0 1.0 1.0 0.0 0.0 1.0 1.0 0.0 0.0 1.0 1.0 0.0 1.0 0.0 0.0 1.0 0.0 1.0 1.0 0.0 0.0 1.0 1.0 0.0 1.0 0.0 0.0 1.0 0.0 1.0 1.0 0.0 1.0 0.0 1.0 0.0 0.0 1.0 1.0 0.0 1.0 0.0 0.0 1.0 0.0 1.0 0.0 1.0 0.0 1.0 1.0 0.0 1.0 0.0 1.0 0.0 1.0 0.0 0.0 1.0 0.0 1.0 1.0 0.0 1.0 0.0 1.0 0.0 0.0 1.0 1.0 0.0 1.0 0.0 1.0 0.0 1.0 0.0 0.0 1.0 0.0 1.0 0.0 1.0 1.0 0.0 0.0 1.0 1.0 0.0 1.0 0.0 1.0 0.0 1.0 0.0 1.0 0.0 0.0 1.0 1.0 0.0 1.0 0.0 1.0 0.0 1.0 0.0 1.0 0.0 1.0 0.0 1.0 0.0 1.0 0.0 1.0 0.0 1.0 0.0 1.0 0.0 0.0 1.0 0.0 1.0 1.0 0.0 1.0 0.0 1.0 0.0 1.0 0.0 1.0 0.0 0.0 1.0 1.0 0.0 0.0 1.0 0.0 1.0 1.0 0.0 0.0 1.0 0.0 1.0 </TABLE>
    </DEFINITION>
    <DEFINITION>
      <FOR>RadioAccess</FOR>
      <GIVEN>Country</GIVEN>
      <TABLE>0.95 0.050000000000000044 0.95 0.050000000000000044 0.95 0.050000000000000044 0.95 0.050000000000000044 0.95 0.050000000000000044 0.95 0.050000000000000044 0.95 0.050000000000000044 0.95 0.050000000000000044 0.95 0.050000000000000044 0.95 0.050000000000000044 0.95 0.050000000000000044 0.95 0.050000000000000044 0.95 0.050000000000000044 0.95 0.050000000000000044 0.95 0.050000000000000044 0.95 0.050000000000000044 0.95 0.050000000000000044 0.95 0.050000000000000044 0.95 0.050000000000000044 0.95 0.050000000000000044 0.95 0.050000000000000044 0.95 0.050000000000000044 0.95 0.050000000000000044 0.95 0.050000000000000044 0.95 0.050000000000000044 0.95 0.050000000000000044 0.95 0.050000000000000044 0.95 0.050000000000000044 0.95 0.050000000000000044 0.95 0.050000000000000044 0.95 0.050000000000000044 0.95 0.050000000000000044 0.95 0.050000000000000044 0.95 0.050000000000000044 0.95 0.050000000000000044 0.95 0.050000000000000044 0.95 0.050000000000000044 0.95 0.050000000000000044 0.95 0.050000000000000044 0.95 0.050000000000000044 0.95 0.050000000000000044 0.95 0.050000000000000044 0.95 0.050000000000000044 0.95 0.050000000000000044 0.95 0.050000000000000044 0.95 0.050000000000000044 0.95 0.050000000000000044 0.95 0.050000000000000044 0.95 0.050000000000000044 0.95 0.050000000000000044 0.95 0.050000000000000044 0.95 0.050000000000000044 0.95 0.050000000000000044 0.95 0.050000000000000044 0.95 0.050000000000000044 0.95 0.050000000000000044 0.95 0.050000000000000044 0.95 0.050000000000000044 0.95 0.050000000000000044 0.95 0.050000000000000044 0.95 0.050000000000000044 0.95 0.050000000000000044 0.95 0.050000000000000044 0.95 0.050000000000000044 0.95 0.050000000000000044 0.95 0.050000000000000044 0.95 0.050000000000000044 0.95 0.050000000000000044 0.95 0.050000000000000044 0.95 0.050000000000000044 0.95 0.050000000000000044 0.95 0.050000000000000044 0.95 0.050000000000000044 0.95 0.050000000000000044 0.95 0.050000000000000044 0.95 0.050000000000000044 0.95 0.050000000000000044 0.95 0.050000000000000044 0.95 0.050000000000000044 0.95 0.050000000000000044 0.95 0.050000000000000044 0.95 0.050000000000000044 0.95 0.050000000000000044 0.95 0.050000000000000044 0.95 0.050000000000000044 0.95 0.050000000000000044 0.95 0.050000000000000044 0.95 0.050000000000000044 0.95 0.050000000000000044 0.95 0.050000000000000044 0.95 0.050000000000000044 0.95 0.050000000000000044 0.95 0.050000000000000044 0.95 0.050000000000000044 0.95 0.050000000000000044 0.95 0.050000000000000044 0.95 0.050000000000000044 0.95 0.050000000000000044 0.95 0.050000000000000044 0.95 0.050000000000000044 0.95 0.050000000000000044 0.95 0.050000000000000044 0.95 0.050000000000000044 0.95 0.050000000000000044 0.95 0.050000000000000044 0.95 0.050000000000000044 0.95 0.050000000000000044 0.95 0.050000000000000044 0.95 0.050000000000000044 0.95 0.050000000000000044 0.95 0.050000000000000044 0.95 0.050000000000000044 0.95 0.050000000000000044 0.95 0.050000000000000044 0.95 0.050000000000000044 0.95 0.050000000000000044 0.95 0.050000000000000044 0.95 0.050000000000000044 0.95 0.050000000000000044 0.95 0.050000000000000044 0.95 0.050000000000000044 0.95 0.050000000000000044 0.95 0.050000000000000044 0.95 0.050000000000000044 0.95 0.050000000000000044 0.95 0.050000000000000044 0.95 0.050000000000000044 0.95 0.050000000000000044 0.95 0.050000000000000044 0.95 0.050000000000000044 0.95 0.050000000000000044 0.95 0.050000000000000044 0.95 0.050000000000000044 0.95 0.050000000000000044 0.95 0.050000000000000044 0.95 0.050000000000000044 0.95 0.050000000000000044 0.95 0.050000000000000044 0.95 0.050000000000000044 0.95 0.050000000000000044 0.95 0.050000000000000044 0.95 0.050000000000000044 0.95 0.050000000000000044 0.95 0.050000000000000044 0.95 0.050000000000000044 0.95 0.050000000000000044 0.95 0.050000000000000044 0.95 0.050000000000000044 0.95 0.050000000000000044 0.95 0.050000000000000044 0.95 0.050000000000000044 0.95 0.050000000000000044 0.95 0.050000000000000044 0.95 0.050000000000000044 0.95 0.050000000000000044 0.95 0.050000000000000044 0.95 0.050000000000000044 0.95 0.050000000000000044 0.95 0.050000000000000044 0.95 0.050000000000000044 0.95 0.050000000000000044 0.95 0.050000000000000044 0.95 0.050000000000000044 0.95 0.050000000000000044 0.95 0.050000000000000044 0.95 0.050000000000000044 0.95 0.050000000000000044 0.95 0.050000000000000044 0.95 0.050000000000000044 0.95 0.050000000000000044 0.95 0.050000000000000044 0.95 0.050000000000000044 0.95 0.050000000000000044 0.95 0.050000000000000044 0.95 0.050000000000000044 0.95 0.050000000000000044 0.95 0.050000000000000044 0.95 0.050000000000000044 0.95 0.050000000000000044 0.95 0.050000000000000044 </TABLE>
    </DEFINITION>
    <DEFINITION>
      <FOR>Student</FOR>
      <GIVEN>Country</GIVEN>
      <TABLE>0.16514150943396227 0.8348584905660377 0.26732508806056465 0.7326749119394353 0.26164572990636586 0.7383542700936341 0.15162329961632368 0.8483767003836763 0.10744621840139187 0.8925537815986081 0.22078122634774283 0.7792187736522571 0.1525495434562056 0.8474504565437944 0.197659793814433 0.802340206185567 0.18915788641663045 0.8108421135833696 0.11482940147095318 0.8851705985290468 0.1792348484848485 0.8207651515151515 0.25061087503252105 0.7493891249674789 0.16203614352900192 0.8379638564709981 0.2890723667485806 0.7109276332514194 0.24179603385493553 0.7582039661450645 0.20332394538964463 0.7966760546103554 0.10117735686612139 0.8988226431338786 0.1338915295551493 0.8661084704448507 0.14586889460154243 0.8541311053984576 0.12167222053923053 0.8783277794607695 0.1271187282137953 0.8728812717862047 0.2622025641025641 0.737797435897436 0.2123223312776861 0.7876776687223139 0.19461915953167275 0.8053808404683273 0.1414843205574913 0.8585156794425087 0.17186143187066974 0.8281385681293303 0.23803014416775883 0.7619698558322412 0.24174956597222222 0.7582504340277778 0.20992413066385668 0.7900758693361434 0.1331590142880077 0.8668409857119923 0.12435081585081585 0.8756491841491841 0.14802849303503587 0.8519715069649642 0.13937973155275013 0.8606202684472499 0.2648158733862187 0.7351841266137813 0.27299296645540266 0.7270070335445973 0.24423129392787188 0.7557687060721281 0.21086691449814127 0.7891330855018588 0.20322074336001908 0.796779256639981 0.24927614571092832 0.7507238542890717 0.22561636363636364 0.7743836363636364 0.20919968304278921 0.7908003169572108 0.13250017646020823 0.8674998235397917 0.0926644407345576 0.9073355592654424 0.12949411986075832 0.8705058801392417 0.13258408075634615 0.8674159192436539 0.15295687885010267 0.8470431211498973 0.16766259883121348 0.8323374011687865 0.21632563553403483 0.7836743644659652 0.2397089633707291 0.7602910366292709 0.2224672192482588 0.7775327807517411 0.23301981312507472 0.7669801868749253 0.2050705482188395 0.7949294517811605 0.13744198291915494 0.8625580170808451 0.128962126707132 0.871037873292868 0.20849812186047342 0.7915018781395265 0.15114967462039045 0.8488503253796096 0.27609101123595503 0.723908988764045 0.1600656142595706 0.8399343857404293 0.2065438596491228 0.7934561403508772 0.19649493554327807 0.8035050644567219 0.1594562629275917 0.8405437370724083 0.16294490728298844 0.8370550927170115 0.25109639029521996 0.7489036097047801 0.20717226528854435 0.7928277347114556 0.16325923997917752 0.8367407600208225 0.09958259587020649 0.9004174041297935 0.12149476439790576 0.8785052356020943 0.20948214285714287 0.7905178571428572 0.21454897053805028 0.7854510294619497 0.24761941251596423 0.7523805874840358 0.19573168479376155 0.8042683152062384 0.12358427518427519 0.8764157248157248 0.12028380600082203 0.879716193999178 0.20586299542542105 0.7941370045745789 0.1819909434741053 0.8180090565258947 0.21600490496627836 0.7839950950337217 0.17103343223098633 0.8289665677690137 0.18462528618672094 0.8153747138132791 0.1757134831460674 0.8242865168539326 0.19827888667110224 0.8017211133288977 0.11520152469340404 0.8847984753065959 0.15469752458460495 0.845302475415395 0.21621987921987923 0.7837801207801207 0.10618295294136307 0.893817047058637 0.20982695327305215 0.7901730467269479 0.2357220108799026 0.7642779891200974 0.22531823860087447 0.7746817613991255 0.19566517044765255 0.8043348295523475 0.23571186440677966 0.7642881355932203 0.10624892819898807 0.893751071801012 0.138567625386261 0.861432374613739 0.2160345933881992 0.7839654066118008 0.13814792122538294 0.8618520787746171 0.18765890216730807 0.8123410978326919 0.22399454116258483 0.7760054588374152 0.15378688524590164 0.8462131147540983 0.2075621179390541 0.7924378820609459 0.2500945882352941 0.7499054117647059 0.14350323974082074 0.8564967602591793 0.13922439024390243 0.8607756097560976 0.12381158663883089 0.8761884133611691 0.21297129304672077 0.7870287069532792 0.1168600113122172 0.8831399886877828 0.24043327524194447 0.7595667247580555 0.14702636534839925 0.8529736346516008 0.23174662747403488 0.7682533725259652 0.13012578012481998 0.86987421987518 0.1879882999287822 0.8120117000712178 0.11338350515463917 0.8866164948453609 0.1936912259926729 0.8063087740073271 0.1546661316211878 0.8453338683788122 0.20011658914728683 0.7998834108527132 0.2750265757755384 0.7249734242244616 0.21834003535130359 0.7816599646486964 0.16304731861198737 0.8369526813880126 0.31923019111015677 0.6807698088898433 0.18045345852895148 0.8195465414710486 0.29630340681362727 0.7036965931863728 0.16023153153153152 0.8397684684684685 0.18203424991540773 0.8179657500845923 0.2263965780629392 0.7736034219370608 0.1628925925925926 0.8371074074074074 0.1606744272676476 0.8393255727323524 0.26558296340312487 0.7344170365968752 0.18169171161898967 0.8183082883810103 0.1720705527638191 0.8279294472361809 0.17630558813479494 0.8236944118652051 0.18495737164390014 0.8150426283560999 0.21262057828360503 0.787379421716395 0.24586963197277023 0.7541303680272298 0.20351891522333637 0.7964810847766637 0.12045288296609051 0.8795471170339095 0.14138638665939374 0.8586136133406063 0.13440119175539708 0.8655988082446029 0.1939278921220724 0.8060721078779276 0.3092828821146877 0.6907171178853123 0.09868972820331803 0.901310271796682 0.12477559665254676 0.8752244033474532 0.13446818222748652 0.8655318177725135 0.26472701354240913 0.7352729864575909 0.188598821091949 0.811401178908051 0.1673469740499381 0.832653025950062 0.21545109229258713 0.7845489077074128 0.06924273204903678 0.9307572679509633 0.2409089552238806 0.7590910447761194 0.32415371816203764 0.6758462818379624 0.19170633813730048 0.8082936618626995 0.115831344356578 0.884168655643422 0.12985866983446517 0.8701413301655349 0.22948881239242686 0.7705111876075732 0.12998641703377387 0.8700135829662261 0.12443444605708756 0.8755655539429125 0.1709175690176568 0.8290824309823432 0.31530836236933796 0.684691637630662 0.18097938144329898 0.819020618556701 0.23180551813016226 0.7681944818698377 0.19514209569197968 0.8048579043080203 0.3102337003587777 0.6897662996412224 0.15870177807141012 0.8412982219285898 0.22538590280012874 0.7746140971998713 0.24636401884887243 0.7536359811511275 0.2924466769706337 0.7075533230293662 0.3659807692307692 0.6340192307692307 0.1700752688172043 0.8299247311827957 0.19269115006412996 0.80730884993587 0.19466020616085342 0.8053397938391466 0.2396593628245354 0.7603406371754646 0.22284503828864444 0.7771549617113556 0.10806893289180239 0.8919310671081976 0.1919592720970537 0.8080407279029462 0.15199852031562852 0.8480014796843715 0.21557299160671461 0.7844270083932854 0.22467272727272727 0.7753272727272728 0.2116220718193295 0.7883779281806705 0.18109775870290892 0.8189022412970911 0.23888333333333334 0.7611166666666667 0.2895939086294416 0.7104060913705583 0.20693861875042863 0.7930613812495714 0.20559402643532906 0.7944059735646709 0.24548398770911575 0.7545160122908843 </TABLE>
    </DEFINITION>
    <DEFINITION>
      <FOR>Tv</FOR>
      <GIVEN>Country</GIVEN>
      <TABLE>1.0 0.0 0.0 1.0 0.0 1.0 0.0 1.0 1.0 0.0 0.0 1.0 0.0 1.0 0.0 1.0 0.0 1.0 0.0 1.0 0.0 1.0 1.0 0.0 0.0 1.0 0.0 1.0 0.0 1.0 0.0 1.0 0.0 1.0 1.0 0.0 1.0 0.0 0.0 1.0 1.0 0.0 0.0 1.0 0.0 1.0 0.0 1.0 1.0 0.0 0.0 1.0 0.0 1.0 0.0 1.0 1.0 0.0 0.0 1.0 1.0 0.0 0.0 1.0 0.0 1.0 0.0 1.0 0.0 1.0 0.0 1.0 0.0 1.0 0.0 1.0 1.0 0.0 0.0 1.0 0.0 1.0 0.0 1.0 0.0 1.0 0.0 1.0 1.0 0.0 0.0 1.0 1.0 0.0 0.0 1.0 0.0 1.0 0.0 1.0 0.0 1.0 1.0 0.0 0.0 1.0 1.0 0.0 0.0 1.0 0.0 1.0 1.0 0.0 0.0 1.0 1.0 0.0 0.0 1.0 0.0 1.0 0.0 1.0 0.0 1.0 0.0 1.0 1.0 0.0 0.0 1.0 0.0 1.0 1.0 0.0 0.0 1.0 0.0 1.0 0.0 1.0 0.0 1.0 0.0 1.0 0.0 1.0 0.0 1.0 0.0 1.0 0.0 1.0 0.0 1.0 1.0 0.0 0.0 1.0 0.0 1.0 0.0 1.0 0.0 1.0 0.0 1.0 0.0 1.0 0.0 1.0 0.0 1.0 0.0 1.0 1.0 0.0 0.0 1.0 0.0 1.0 0.0 1.0 0.0 1.0 1.0 0.0 0.0 1.0 1.0 0.0 0.0 1.0 0.0 1.0 0.0 1.0 1.0 0.0 0.0 1.0 0.0 1.0 0.0 1.0 0.0 1.0 0.0 1.0 0.0 1.0 0.0 1.0 0.0 1.0 1.0 0.0 0.0 1.0 0.0 1.0 0.0 1.0 0.0 1.0 0.0 1.0 0.0 1.0 1.0 0.0 0.0 1.0 0.0 1.0 1.0 0.0 0.0 1.0 0.0 1.0 1.0 0.0 0.0 1.0 0.0 1.0 0.0 1.0 0.0 1.0 0.0 1.0 0.0 1.0 0.0 1.0 0.0 1.0 1.0 0.0 0.0 1.0 1.0 0.0 0.0 1.0 0.0 1.0 0.0 1.0 0.0 1.0 0.0 1.0 0.0 1.0 0.0 1.0 0.0 1.0 1.0 0.0 0.0 1.0 1.0 0.0 1.0 0.0 1.0 0.0 0.0 1.0 0.0 1.0 1.0 0.0 0.0 1.0 0.0 1.0 0.0 1.0 1.0 0.0 0.0 1.0 0.0 1.0 0.0 1.0 0.0 1.0 1.0 0.0 0.0 1.0 1.0 0.0 1.0 0.0 0.0 1.0 1.0 0.0 0.0 1.0 0.0 1.0 0.0 1.0 0.0 1.0 0.0 1.0 0.0 1.0 0.0 1.0 0.0 1.0 0.0 1.0 1.0 0.0 0.0 1.0 0.0 1.0 1.0 0.0 0.0 1.0 0.0 1.0 0.0 1.0 1.0 0.0 </TABLE>
    </DEFINITION>
    <DEFINITION>
      <FOR>TvAccess</FOR>
      <GIVEN>Country</GIVEN>
      <TABLE>0.8952307692307692 0.10476923076923084 0.508 0.492 0.512 0.488 0.9840000000000001 0.015999999999999903 0.9181999999999999 0.0818000000000001 0.9590000000000001 0.040999999999999925 0.995 0.0050000000000000044 0.8952307692307692 0.10476923076923084 0.9628 0.03720000000000001 0.95075 0.049250000000000016 0.764 0.236 0.0478 0.9522 0.95075 0.049250000000000016 0.287 0.7130000000000001 0.162 0.838 0.551 0.44899999999999995 0.95075 0.049250000000000016 0.9181999999999999 0.0818000000000001 0.8952307692307692 0.10476923076923084 0.987 0.013000000000000012 0.986 0.014000000000000012 0.8170000000000001 0.18299999999999994 0.688 0.31200000000000006 0.951 0.049000000000000044 0.973 0.027000000000000024 0.8086363636363636 0.1913636363636364 0.491 0.509 0.507 0.493 0.44799999999999995 0.552 0.95075 0.049250000000000016 0.95075 0.049250000000000016 0.981 0.019000000000000017 0.953 0.04700000000000004 0.43200000000000005 0.568 0.512 0.488 0.733 0.267 0.601 0.399 0.93 0.06999999999999995 0.597 0.403 0.87 0.13 0.975 0.025000000000000022 0.9209999999999999 0.07900000000000007 0.9245 0.07550000000000001 0.95075 0.049250000000000016 0.95075 0.049250000000000016 0.574 0.42600000000000005 0.95075 0.049250000000000016 0.855 0.14500000000000002 0.988 0.01200000000000001 0.971 0.029000000000000026 0.975 0.025000000000000022 0.132 0.868 0.95075 0.049250000000000016 0.95075 0.049250000000000016 0.138 0.862 0.95075 0.049250000000000016 0.665 0.33499999999999996 0.95075 0.049250000000000016 0.36194000000000004 0.63806 0.836 0.16400000000000003 0.95075 0.049250000000000016 0.9590000000000001 0.040999999999999925 0.72 0.28 0.313 0.687 0.616 0.384 0.44026904761904767 0.5597309523809524 0.95075 0.049250000000000016 0.8952307692307692 0.10476923076923084 0.73 0.27 0.882 0.118 0.722 0.278 0.95075 0.049250000000000016 0.95075 0.049250000000000016 0.887 0.11299999999999999 0.652 0.348 0.95075 0.049250000000000016 0.613 0.387 0.986 0.014000000000000012 0.95075 0.049250000000000016 0.9245 0.07550000000000001 0.95075 0.049250000000000016 0.902 0.09799999999999998 0.988 0.01200000000000001 0.8086363636363636 0.1913636363636364 0.993 0.007000000000000006 0.345 0.655 0.975 0.025000000000000022 0.657 0.34299999999999997 0.0297 0.9703 0.8086363636363636 0.1913636363636364 0.9181999999999999 0.0818000000000001 0.847 0.15300000000000002 0.9181999999999999 0.0818000000000001 0.141 0.859 0.8562000000000001 0.14379999999999993 0.9009999999999999 0.09900000000000009 0.613 0.387 0.682 0.31799999999999995 0.95075 0.049250000000000016 0.95075 0.049250000000000016 0.95075 0.049250000000000016 0.943 0.05700000000000005 0.919 0.08099999999999996 0.51 0.49 0.941 0.05900000000000005 0.956 0.04400000000000004 0.99 0.010000000000000009 0.426 0.5740000000000001 0.95075 0.049250000000000016 0.5710000000000001 0.42899999999999994 0.992 0.008000000000000007 0.946 0.05400000000000005 0.18600000000000003 0.814 0.353 0.647 0.97 0.030000000000000027 0.11699999999999999 0.883 0.981 0.019000000000000017 0.436 0.5640000000000001 0.115 0.885 0.491 0.509 0.836 0.16400000000000003 0.95075 0.049250000000000016 0.95075 0.049250000000000016 0.516 0.484 0.981 0.019000000000000017 0.9181999999999999 0.0818000000000001 0.632 0.368 0.863 0.137 0.8029999999999999 0.19700000000000006 0.769 0.23099999999999998 0.126 0.874 0.95075 0.049250000000000016 0.8086363636363636 0.1913636363636364 0.95075 0.049250000000000016 0.938 0.062000000000000055 0.972 0.028000000000000025 0.9181999999999999 0.0818000000000001 0.95075 0.049250000000000016 0.95075 0.049250000000000016 0.09609999999999999 0.9039 0.9181999999999999 0.0818000000000001 0.39899999999999997 0.601 0.624 0.376 0.8086363636363636 0.1913636363636364 0.36194000000000004 0.63806 0.205 0.795 0.877 0.123 0.99 0.010000000000000009 0.0384 0.9616 0.9009999999999999 0.09900000000000009 0.95075 0.049250000000000016 0.95075 0.049250000000000016 0.95075 0.049250000000000016 0.5489999999999999 0.45100000000000007 0.44026904761904767 0.5597309523809524 0.976 0.02400000000000002 0.684 0.31599999999999995 0.7120000000000001 0.2879999999999999 0.9420000000000001 0.05799999999999994 0.981 0.019000000000000017 0.9990000000000001 0.0009999999999998899 0.402 0.598 0.7090000000000001 0.2909999999999999 0.961 0.039000000000000035 0.976 0.02400000000000002 0.98 0.020000000000000018 0.20199999999999999 0.798 0.16899999999999998 0.831 0.758 0.242 0.99 0.010000000000000009 0.95075 0.049250000000000016 0.961 0.039000000000000035 0.8952307692307692 0.10476923076923084 0.993 0.007000000000000006 0.94 0.06000000000000005 0.28 0.72 0.36194000000000004 0.63806 0.669 0.33099999999999996 0.768 0.23199999999999998 0.634 0.366 </TABLE>
    </DEFINITION>
  </NETWORK>
</BIF>
